650 128
</s> 0.003127 0.003453 -0.002992 -0.002561 0.001068 0.002360 0.000735 0.000165 -0.002815 0.001733 -0.003403 0.000976 -0.000587 -0.000748 -0.002590 -0.001470 0.002015 0.002364 0.002320 0.001248 0.001207 -0.002971 -0.003200 0.003883 0.002970 0.002414 -0.000472 0.003137 -0.000387 0.000574 -0.000117 -0.002331 0.001025 -0.001045 -0.002989 0.003714 0.003421 -0.000856 -0.000177 0.000398 -0.002842 -0.003131 0.003558 0.000049 -0.002017 -0.002377 -0.002403 0.001326 0.000157 0.001040 -0.003292 -0.002975 -0.000102 0.000893 0.001992 -0.002477 0.003187 0.000724 0.000875 -0.000475 0.002333 -0.001787 -0.001639 0.001686 -0.000588 0.000805 0.001410 -0.003194 -0.001549 0.002276 0.003306 0.003072 -0.002380 -0.001647 -0.000710 0.001564 -0.002960 0.002342 0.002178 -0.001249 -0.001212 -0.001749 0.003304 0.003056 -0.000922 0.003293 0.003766 0.001418 0.003893 -0.002431 -0.001197 -0.001646 -0.002271 0.002199 0.001234 0.000332 -0.001714 0.001191 0.002390 0.000151 0.001781 -0.003869 0.003371 0.000375 -0.001431 -0.001628 -0.000584 -0.002293 -0.003414 -0.002216 0.003341 -0.001383 -0.002093 0.001810 -0.001331 0.003716 -0.001254 -0.003585 0.002122 -0.000058 -0.002726 0.000762 0.001127 -0.000376 0.001425 -0.003092 0.000688 0.001419 
50 -0.240944 -0.025685 -0.146244 -0.296832 0.204964 -0.270065 -0.099074 0.151295 0.139532 -0.106367 0.086570 -0.211572 0.070480 0.029769 0.066040 -0.048463 -0.502828 -0.214001 -0.213112 -0.038878 -0.117514 -0.171326 -0.224435 -0.145983 0.073081 -0.215267 -0.072753 0.309209 -0.099020 0.035536 0.290549 0.254790 0.061695 -0.237613 0.344030 0.067125 -0.236768 -0.070507 -0.302784 0.182630 -0.229345 -0.170097 -0.231970 0.047588 -0.330337 0.043171 0.000440 -0.016683 0.018194 -0.013752 -0.315178 -0.010484 -0.136602 -0.191796 -0.455598 0.053167 0.204217 -0.092443 -0.175698 -0.051398 -0.144356 0.126538 0.246309 -0.133654 -0.139412 -0.048693 -0.088260 -0.131111 -0.169451 -0.081717 0.174114 0.238892 -0.047881 -0.137450 0.075121 -0.084704 -0.131943 0.162448 0.200677 0.182436 0.107160 -0.139250 0.159960 -0.237898 0.135723 -0.181648 -0.172472 -0.180289 -0.138838 -0.323023 0.110989 -0.114591 -0.092474 0.133809 0.052399 -0.006096 0.041169 0.087935 0.100773 0.091845 -0.225872 -0.186010 -0.113393 -0.044824 0.254613 -0.018873 -0.381656 -0.138661 -0.001406 -0.037999 0.121224 -0.279451 -0.225612 0.124420 0.080871 0.055578 -0.136568 0.104715 -0.098100 0.024690 0.050019 0.103459 -0.119307 -0.253154 -0.147847 0.488844 -0.158961 -0.085145 
181 -0.011408 -0.157478 -0.173300 0.033768 -0.048497 -0.277436 -0.191638 0.235206 -0.040634 -0.018267 0.153890 0.007763 -0.124985 -0.095884 -0.210991 0.113915 -0.301384 0.248550 -0.017642 0.005606 0.117797 0.033412 -0.240242 0.285685 0.098816 -0.196219 0.079201 0.146915 -0.313653 0.142431 0.205156 -0.182667 0.041982 -0.035724 -0.218210 -0.208285 -0.066277 -0.116097 0.375492 0.218040 -0.052483 0.338623 -0.121876 0.339621 0.015969 0.317160 0.086107 0.042581 -0.151495 -0.302558 -0.092314 -0.133510 0.308697 0.039392 0.044415 0.091001 -0.015902 0.080831 -0.059730 0.047805 -0.093106 -0.274622 0.222283 -0.432384 0.121452 -0.008764 -0.325237 0.083492 -0.177027 0.051815 0.032499 0.292611 -0.247831 0.147368 0.054383 -0.155759 0.281686 0.245257 -0.174599 -0.094719 0.080716 -0.107388 0.228603 -0.015677 -0.214286 -0.282297 -0.229417 -0.050747 -0.000423 -0.141247 0.086291 0.087060 0.229641 -0.186470 0.200952 0.013376 -0.255480 -0.322702 -0.074829 -0.227085 0.053327 -0.064283 0.098032 0.154912 0.136682 0.035281 0.005757 0.009301 -0.299712 -0.016016 -0.254125 0.066688 0.114333 0.039066 0.118725 -0.038547 -0.068867 -0.071858 0.194690 0.109853 -0.516066 -0.057627 -0.065718 0.040500 -0.139769 0.070480 0.162185 0.095786 
100 0.066311 0.119046 0.023533 -0.304973 0.277531 -0.110092 -0.248134 -0.122346 0.236940 -0.218315 0.368471 0.225400 -0.139460 0.025886 -0.087531 -0.255574 -0.156815 -0.237433 -0.092368 0.090268 -0.088540 -0.249936 -0.083637 -0.043785 -0.309946 -0.100488 0.507285 0.122017 -0.571987 0.324851 0.084303 0.267302 0.095099 0.108678 0.264483 0.043519 -0.013800 -0.091317 -0.008595 0.122072 -0.186955 0.296454 -0.183860 0.249632 -0.307049 0.059879 -0.240454 -0.247767 -0.066311 0.272057 0.097817 0.092451 0.121858 0.078628 -0.260626 0.001215 0.066566 0.167826 0.153923 -0.095233 -0.094832 0.070846 -0.039997 -0.537868 0.289400 -0.184102 -0.157464 0.025989 -0.189317 0.020522 0.213665 0.104848 0.189535 -0.112618 -0.021799 0.261888 0.268919 0.136704 -0.146252 0.134769 0.197931 0.030237 -0.097802 -0.009150 -0.139747 -0.152334 0.028866 -0.264772 -0.037846 -0.033614 0.077204 -0.070054 -0.016685 -0.202992 -0.081200 0.026534 0.062987 -0.031443 0.035217 0.172288 0.033773 -0.067552 -0.112876 -0.070540 0.124326 0.183966 -0.081505 -0.033023 -0.388475 -0.484802 -0.105661 0.022543 0.094816 0.228198 -0.052495 0.233540 -0.234234 0.282927 -0.192821 0.068585 -0.359059 -0.099547 -0.092917 0.003956 -0.356336 -0.173273 0.052106 0.000445 
174 -0.110644 -0.059461 -0.153118 0.034906 0.085323 0.038054 -0.126183 0.016693 -0.079571 0.072086 0.124659 0.288446 -0.174882 -0.057578 -0.081065 -0.122367 -0.269175 0.057498 -0.168270 -0.046380 -0.134538 -0.051773 -0.438037 0.096328 0.209186 -0.437874 0.168599 0.146013 -0.253596 0.350976 0.094363 -0.052497 -0.267154 -0.128956 -0.123913 -0.371444 0.004736 -0.291604 0.177556 0.086924 -0.184305 0.088271 -0.076498 0.355884 0.061907 0.003867 0.140401 0.141430 0.087256 0.033956 -0.016096 -0.016192 0.348153 0.149430 -0.038207 0.216259 0.070955 -0.190390 -0.122050 0.076245 -0.117385 -0.372765 -0.135340 -0.140552 -0.017498 0.059470 -0.248022 -0.146282 -0.171313 0.134269 0.095476 0.015974 0.047411 0.236237 -0.170831 -0.002738 0.057219 0.213287 -0.060444 -0.005715 0.055686 -0.044516 0.180758 -0.131127 0.089509 -0.500807 0.066561 0.004363 0.234919 -0.089187 0.111763 -0.027734 -0.119608 0.262613 0.238421 -0.415174 -0.164170 -0.084590 0.141327 -0.159958 -0.105170 -0.093820 -0.445347 0.105844 0.424389 -0.044132 -0.123027 0.138159 -0.330276 0.094816 -0.046493 -0.036590 -0.345334 -0.031673 0.065084 0.105447 -0.036575 0.177524 0.218753 -0.202514 -0.227302 -0.108091 0.104645 -0.050734 -0.210487 0.065235 0.066412 0.055956 
258 -0.302035 -0.208791 0.031866 -0.109581 -0.156579 -0.071308 0.178806 -0.204655 -0.060704 0.207265 0.075794 -0.229197 -0.279629 0.035684 -0.253353 -0.050610 -0.247172 -0.076256 -0.191143 -0.150620 0.310060 -0.055246 -0.046343 -0.014553 0.189208 -0.258201 0.182737 0.095356 0.258968 0.258759 0.393204 -0.293988 -0.242172 -0.019509 -0.116133 -0.030136 0.240053 -0.461551 0.105837 0.304194 -0.037912 0.156282 -0.177739 0.314199 0.160089 -0.146020 -0.051747 -0.126095 0.034946 -0.185050 0.045446 0.004407 -0.179243 -0.368069 0.058171 -0.144910 0.032495 -0.001411 0.480872 -0.102720 0.102745 -0.150027 0.283421 0.124489 0.187845 -0.361366 0.002991 0.123623 -0.145971 -0.021486 0.021895 -0.116761 -0.404970 -0.258082 -0.008359 -0.155784 0.207491 0.027301 -0.078489 0.356368 0.116226 0.199505 0.352272 0.019829 -0.121728 -0.067387 -0.174639 -0.037064 -0.189800 0.052181 -0.110299 -0.002133 0.132235 -0.193909 0.145004 -0.131999 -0.005887 0.084583 0.173309 -0.131853 0.027299 -0.068520 -0.276871 0.193674 -0.045005 -0.149604 -0.061775 -0.261712 -0.292755 -0.200365 -0.153210 -0.210114 -0.263442 -0.178102 -0.061055 0.090017 0.057043 -0.232395 -0.221144 0.158751 -0.183458 -0.198426 -0.180602 0.094237 -0.088755 -0.107481 0.008387 0.219146 
1 -0.221814 -0.069554 -0.236899 -0.357951 0.175086 -0.228392 -0.587151 0.057997 0.027738 -0.034633 0.019305 -0.086532 -0.081744 0.005167 0.313823 -0.773289 -0.363643 0.010594 -0.145376 -0.256080 0.075272 -0.243602 0.000389 -0.179560 -0.048295 -0.223407 -0.075198 0.134115 -0.170345 0.085555 0.218915 0.471311 -0.052900 -0.199019 0.187430 0.189225 0.102237 0.036158 -0.208720 0.176525 0.096638 0.072421 -0.363154 0.064673 -0.418653 -0.198424 0.259110 0.027180 -0.025621 0.059059 -0.278990 0.109904 -0.064971 -0.365894 -0.096413 -0.214781 -0.008011 -0.022079 -0.260489 -0.215604 -0.179312 0.062156 -0.043558 0.151890 0.119091 0.273680 0.110160 0.264316 -0.229451 -0.006748 -0.065582 -0.027438 0.403515 -0.114366 -0.019609 0.128520 -0.105283 0.234185 0.100049 0.226675 -0.223829 -0.293303 0.150430 -0.520898 -0.060208 -0.136803 0.015978 -0.146296 -0.321268 -0.093645 0.261858 -0.120615 0.338843 -0.019253 -0.101546 0.224659 -0.197906 0.027452 0.339020 -0.078153 -0.123800 0.036719 0.008106 -0.632162 0.325175 -0.267060 -0.350328 -0.147541 -0.455737 -0.362716 0.188172 0.048285 -0.193555 -0.186015 0.349677 -0.060656 0.030514 0.195067 -0.090444 -0.160892 -0.127311 0.302774 0.070108 -0.093004 -0.115535 0.500111 -0.316222 0.162788 
313 -0.244473 0.192822 0.048500 0.373421 0.258720 0.226163 0.025334 0.013763 -0.100183 0.189294 0.478840 0.001817 -0.194721 0.190198 0.037409 -0.174073 -0.280163 -0.137657 -0.110827 -0.082261 -0.027355 -0.148982 -0.173556 -0.245676 -0.289659 -0.035779 -0.135617 -0.109387 0.409027 0.039296 0.406227 -0.135427 -0.264467 0.010702 0.120751 0.237010 0.484466 0.019390 0.053937 0.028081 -0.052637 -0.003981 0.046867 0.209442 0.135599 -0.065205 0.156490 0.069451 -0.103763 -0.169418 -0.113672 0.119811 0.068625 -0.417288 0.121301 0.105315 0.141996 -0.287133 0.222774 -0.019280 0.289903 0.102527 -0.064189 0.027008 0.398575 -0.069327 0.049243 -0.278593 -0.036500 0.108053 0.275960 0.148752 -0.024498 -0.277333 0.106773 -0.200149 0.261326 -0.124569 -0.147002 -0.008146 -0.029019 0.337995 -0.188696 -0.054515 0.083542 -0.298929 0.055127 -0.222184 -0.138007 0.119660 -0.134972 -0.150294 -0.250498 -0.434905 -0.125689 -0.309849 -0.098661 0.088969 0.258770 -0.177475 0.025230 0.168135 -0.082210 0.145127 0.097874 -0.176955 0.036599 -0.087606 0.119524 -0.146694 0.003678 -0.475982 0.316926 0.065855 -0.017557 0.163451 -0.113004 0.212234 -0.206258 0.371190 -0.203342 0.065478 -0.068917 0.081110 0.162293 -0.130142 -0.012045 -0.003866 
56 -0.290760 -0.109936 -0.202705 -0.206862 0.298133 -0.367195 0.120995 0.118754 0.069387 -0.090449 -0.021730 0.233252 0.105651 -0.083833 0.182083 0.077031 -0.348138 -0.674316 0.026648 0.013343 -0.156803 -0.136191 -0.156674 -0.103800 0.042942 -0.179092 0.339593 0.263503 -0.144905 0.068326 0.177759 0.280658 0.003466 -0.406039 0.418432 0.144573 -0.221383 0.076066 0.023039 0.370516 0.088387 -0.297613 -0.212400 0.148048 0.190225 0.025368 0.278686 -0.058501 0.246199 0.187505 -0.231419 -0.058951 0.475626 -0.249089 -0.268526 0.073169 -0.300624 0.340127 -0.071552 -0.059195 -0.072948 -0.042946 0.244661 -0.318397 -0.053339 -0.158039 0.013090 0.037852 0.050392 0.169555 0.215578 0.128172 -0.170297 0.035828 -0.315255 0.279414 0.185051 0.347134 0.284457 -0.066789 0.167767 -0.444504 -0.051036 -0.148413 -0.116837 -0.310453 0.055737 -0.126909 -0.118919 -0.119706 0.028160 0.393927 0.000743 0.182977 0.005622 0.132653 -0.445524 0.186364 -0.330198 0.305599 -0.199770 -0.030721 -0.017252 -0.110942 0.109710 -0.412785 -0.315668 0.003646 -0.099772 0.013817 0.229827 -0.208845 -0.371460 0.167886 0.173320 0.147641 -0.264798 0.514815 0.323058 0.137790 0.088405 0.156434 0.201663 0.004548 -0.420789 0.270881 0.086908 -0.191454 
318 -0.298423 0.122419 -0.295960 0.206816 -0.082782 -0.096252 -0.260299 -0.211913 -0.073198 0.146331 0.222784 0.028850 -0.229591 0.154784 -0.299225 -0.254756 -0.063937 0.079529 0.147276 0.432618 0.074924 -0.412734 0.138602 0.000642 -0.314987 -0.010063 0.332541 -0.140548 -0.101513 0.152113 -0.230655 0.293023 -0.118333 -0.077304 0.202638 -0.119791 -0.008498 -0.339728 0.164148 -0.065689 -0.013184 -0.200956 0.057591 -0.111018 0.113779 -0.040816 0.044194 -0.255652 0.246294 -0.094341 -0.000378 0.229107 -0.068873 -0.492294 0.271944 0.151682 -0.040111 0.047293 -0.125718 0.003972 0.163380 0.077858 0.018590 -0.051015 0.166807 -0.258588 -0.233897 0.297944 -0.329869 -0.002672 -0.047644 -0.002396 -0.283236 -0.346826 -0.116948 -0.020890 0.305810 -0.028379 0.080256 -0.018114 0.051703 -0.062830 0.171127 -0.061997 0.341740 -0.018572 -0.071982 -0.226868 0.156678 -0.010888 -0.293199 0.227226 -0.091271 -0.216956 0.115981 -0.168728 0.050141 0.023969 0.326186 -0.139546 0.049540 -0.066108 -0.109479 0.108286 0.216980 -0.155575 0.369691 -0.292521 -0.063125 -0.008125 0.041930 -0.078727 -0.243035 0.031266 -0.128149 0.080933 0.227560 0.169263 0.142441 0.205523 -0.158577 -0.186402 -0.388747 0.069216 -0.254641 0.207600 0.003100 -0.097250 
300 -0.042070 -0.358119 -0.050265 -0.241279 0.024839 0.438795 0.161673 -0.004409 -0.020649 0.048505 0.208159 -0.218250 -0.060507 0.044598 0.074935 -0.199893 -0.360961 0.139987 -0.142896 -0.002439 0.031687 0.035785 -0.159429 0.152344 -0.309366 -0.113344 0.214778 0.197024 0.057053 -0.050012 0.008168 0.084168 -0.213722 0.146842 -0.010585 0.145578 0.164064 -0.428163 -0.044880 -0.053781 0.130692 0.003154 -0.138087 -0.024315 0.138083 0.064263 0.381133 -0.164862 -0.274125 -0.272779 0.081767 0.133808 -0.188169 -0.297042 -0.147113 0.287284 0.170972 -0.076230 0.162943 0.002660 -0.173646 0.069721 -0.100061 0.267328 0.028358 -0.400346 0.028068 0.104452 -0.000244 -0.142708 0.124855 0.040086 -0.394566 -0.072247 0.194289 -0.019922 0.256358 0.105274 0.056577 0.037499 -0.252474 0.176995 -0.081860 -0.308620 0.385162 0.097005 -0.238775 0.223628 -0.098080 0.067782 -0.335200 0.093297 -0.037768 -0.005452 0.364862 -0.052769 -0.045335 0.220458 0.001640 -0.163461 -0.042534 0.196390 -0.141391 0.183589 -0.273575 0.128505 0.317520 -0.402286 -0.096106 0.024163 -0.008581 -0.729481 -0.024986 -0.023401 0.091374 -0.090066 -0.079070 -0.241260 -0.235519 0.075443 -0.585068 -0.279421 0.297046 0.073357 -0.034475 -0.066668 -0.092936 0.197343 
288 -0.254440 -0.278946 0.162857 0.044327 0.185476 0.313660 0.086384 -0.141050 -0.136676 -0.159527 0.343000 0.070258 -0.335382 -0.130251 -0.175516 0.008605 -0.345402 0.024829 0.258626 0.127995 0.037173 -0.395005 -0.103882 -0.331317 0.027582 -0.012355 -0.086639 -0.034465 0.259268 0.300139 0.221464 -0.254685 -0.346467 -0.186290 0.008744 -0.177098 0.069449 -0.148645 0.360247 -0.277521 -0.079259 0.090188 -0.148094 0.301681 -0.336368 0.152460 0.159333 -0.389371 0.102004 -0.000753 0.163554 0.074279 0.073409 -0.291552 0.144571 0.013785 -0.123079 0.022963 0.115925 0.092736 0.035219 0.060980 -0.020673 0.132203 0.230386 0.004084 0.012440 0.127121 -0.133879 0.014476 -0.117064 -0.254977 0.065212 -0.247886 0.158623 -0.347589 0.360400 0.421301 0.036990 0.043751 -0.276991 0.567403 -0.049034 -0.225395 0.111022 -0.157110 -0.046522 0.116185 0.037932 0.023964 -0.104711 -0.314734 0.205405 0.003143 0.328938 -0.063279 0.242747 0.177681 0.030736 -0.312484 0.478156 -0.082587 -0.011640 0.315233 0.079409 0.017816 0.051551 -0.198974 0.021429 0.303786 -0.184082 -0.399699 0.159276 0.138662 0.034923 0.084097 0.452530 0.054086 -0.122191 0.464656 -0.055158 0.005402 -0.162222 0.125375 -0.129164 -0.163460 -0.165395 -0.198253 
7 -0.151139 -0.130739 -0.588481 -0.240164 0.176615 -0.149259 -0.353904 0.207768 -0.126783 -0.292653 0.244688 0.408475 -0.330101 -0.108043 0.188636 -0.058573 -0.292961 -0.154489 0.105700 0.037785 -0.172345 -0.121865 -0.047112 0.031909 -0.152207 -0.167981 0.100232 0.177346 -0.069777 0.267029 0.274100 0.129276 0.083622 -0.364529 0.322548 0.195888 0.175923 0.095914 -0.279228 0.146369 -0.029139 -0.041540 -0.273911 0.072923 -0.268427 -0.299532 0.436140 -0.150928 0.405308 -0.037397 -0.376933 0.066204 -0.280589 0.178587 -0.046404 0.273639 0.289266 -0.024912 -0.412998 -0.489807 -0.179884 -0.079181 0.267977 0.017674 0.100260 0.087475 -0.215140 0.136398 -0.151588 -0.067338 -0.016714 0.054053 0.103440 -0.186430 0.092402 0.045056 0.305005 0.265382 -0.033327 -0.033811 0.096863 -0.222611 0.053391 -0.072108 0.017818 -0.183221 0.272987 -0.306643 -0.154419 0.237154 0.128781 0.144400 0.552404 0.197033 0.110447 0.235413 0.205400 0.070981 0.366945 -0.081978 -0.190278 0.142259 0.388705 -0.075554 0.198563 -0.109616 -0.422076 -0.108506 -0.267023 -0.107516 0.004702 0.293372 0.159422 -0.322880 0.034953 0.047839 -0.038232 0.165586 0.209054 -0.147277 -0.144142 0.202355 -0.069398 -0.743384 -0.269423 0.481622 0.178896 0.202463 
237 0.256907 0.030381 0.022708 0.026921 0.189691 0.167421 -0.263429 0.050222 0.050997 0.079297 0.065079 -0.216409 -0.397067 0.016188 -0.163269 -0.396772 -0.292920 -0.049196 -0.167673 0.016949 0.199033 -0.413913 -0.215687 0.384445 -0.059349 -0.315142 0.202884 0.139786 -0.212627 0.181033 0.348462 -0.136905 -0.093639 -0.093813 0.107102 -0.076414 -0.134649 -0.217232 0.186516 0.138088 0.174635 0.153701 -0.236488 -0.004398 0.143856 0.210385 -0.158204 -0.227155 0.191595 0.020014 0.276578 0.197685 -0.269618 -0.381293 -0.270814 0.120217 -0.042879 -0.022275 0.265977 -0.191813 -0.207523 0.060103 0.086931 0.176257 0.385332 -0.176238 -0.209441 0.113911 0.073921 0.163201 0.025072 0.147057 0.127901 -0.194307 0.191734 0.292045 -0.232164 0.089691 0.174094 0.370112 0.116596 0.236079 0.471673 -0.102130 -0.047857 -0.036772 -0.326380 0.201539 0.035245 -0.020098 -0.096847 0.229396 0.142753 -0.080982 -0.091528 0.152049 -0.461120 -0.132917 -0.154091 0.006895 -0.234424 -0.283788 -0.037358 0.122869 -0.013504 0.317641 0.134490 -0.119422 -0.485200 -0.062413 -0.279493 -0.034402 0.156448 0.002203 0.148952 -0.307845 0.195347 -0.027163 -0.207283 0.400193 -0.471033 -0.314885 -0.488793 0.264452 0.030802 0.242622 -0.052167 0.222906 
302 -0.404455 0.023661 0.024044 -0.016346 0.024917 0.595966 0.167706 -0.262013 0.174400 -0.159625 0.153499 -0.015151 -0.269252 -0.000548 0.070805 -0.025711 -0.071781 0.226548 0.131768 -0.123423 -0.070125 -0.431969 -0.607900 -0.071578 -0.145118 0.070976 0.014932 -0.040732 0.315152 0.291169 0.223301 -0.016514 -0.484513 0.251742 -0.059807 -0.006945 0.098881 -0.202964 0.511981 -0.221948 0.181258 0.100835 -0.289326 0.269352 -0.210546 -0.268017 0.043204 -0.231183 0.286683 -0.038183 0.070545 0.208283 -0.198467 -0.257115 0.064481 0.012672 0.080706 -0.123474 0.285097 -0.211789 0.219514 -0.055856 -0.263060 0.201962 -0.003705 -0.240210 0.207288 -0.325891 0.082140 0.071764 0.215300 -0.020364 -0.077413 -0.639316 0.099929 -0.236371 0.302765 0.104594 -0.139940 0.022778 -0.144643 0.013022 -0.146813 -0.286539 0.303571 -0.009746 -0.196180 0.018157 0.060235 -0.267725 -0.196284 0.076592 -0.391854 -0.526785 -0.171653 -0.046763 0.175073 0.177726 0.042276 -0.086874 -0.028532 0.009795 -0.320333 0.358660 -0.137371 0.139428 0.043166 -0.399843 -0.137782 0.024141 -0.045932 -0.534788 0.097499 -0.046772 0.095326 0.110186 -0.329903 -0.031086 -0.210662 0.323946 -0.203439 -0.175094 -0.129087 -0.156835 -0.085387 0.014333 0.231308 -0.419597 
210 0.019156 0.072932 -0.177873 0.214997 0.348415 -0.111811 0.046579 0.228549 0.174352 0.000574 0.081331 0.035835 -0.189343 0.109557 -0.024612 -0.116846 -0.341999 -0.058449 -0.062015 0.174130 -0.062809 0.004333 -0.172756 0.173559 0.177105 -0.161232 0.083144 -0.128331 -0.134204 0.331803 -0.025156 0.008266 -0.071666 0.059671 -0.385945 -0.235574 0.319149 -0.079284 0.148425 0.257741 -0.130475 0.374952 -0.090175 -0.283348 -0.214675 -0.042124 0.403457 -0.054891 0.033293 -0.042127 0.074602 -0.025661 0.119910 -0.125952 -0.021543 0.075211 0.137334 -0.045421 -0.143190 0.072843 0.159411 -0.113328 0.182283 0.006569 -0.177827 0.092865 -0.163185 -0.042008 -0.249573 -0.266747 -0.336851 0.089181 -0.307577 0.098909 -0.182078 0.071026 -0.036735 0.146531 -0.214093 -0.104083 0.326758 0.309213 0.495482 0.035494 0.000318 -0.304822 0.066180 0.118304 -0.101652 -0.111235 0.119158 0.176785 0.188258 0.388627 0.142971 -0.354930 -0.246186 -0.070030 0.190229 -0.112193 -0.238960 -0.050397 0.149449 0.076622 0.216403 -0.129569 0.049866 0.006470 -0.077163 0.045039 -0.156493 0.050533 0.000966 0.083845 0.146324 -0.169580 0.008121 -0.132023 0.417140 0.098203 -0.007607 -0.220310 0.181320 -0.049267 -0.028004 -0.002706 0.385504 0.070507 
69 0.045308 0.001441 -0.094739 -0.061599 0.193185 -0.096516 -0.006356 0.131922 0.116283 -0.265959 0.213818 0.333982 -0.082700 -0.074893 0.176014 -0.025258 -0.272638 -0.281902 -0.268073 0.507191 -0.028452 -0.334978 -0.266875 -0.004889 0.030410 -0.032224 0.442284 0.231504 -0.390799 0.155382 0.419193 0.230211 0.330722 -0.445746 0.263772 0.218574 -0.076709 -0.250699 -0.184887 -0.014425 -0.083274 -0.198493 -0.339362 0.492738 -0.029828 -0.295623 0.396196 0.101823 0.158671 0.070529 -0.409514 -0.185412 0.331028 0.087549 -0.469880 0.195745 0.154004 0.028399 0.161147 0.298175 -0.026702 -0.061771 0.069719 -0.350037 0.010882 -0.044285 0.000297 -0.016949 -0.015676 0.285960 0.377455 0.243710 -0.116365 -0.061237 -0.568806 -0.100880 -0.027268 0.199657 -0.044846 0.092931 -0.032596 -0.204672 0.043262 0.265640 0.000701 -0.334879 0.161520 -0.285745 -0.135334 -0.117984 0.015032 0.187742 -0.247444 0.304641 0.108572 0.008789 -0.185258 0.090085 -0.239049 0.292804 0.233881 -0.002350 0.107387 0.145843 0.236861 -0.111493 -0.329106 -0.083908 0.000883 0.201325 0.080181 0.090551 -0.059468 -0.161067 0.202943 0.194758 0.028445 0.541994 0.130938 0.056737 0.035432 -0.052084 0.256729 -0.245516 -0.635740 0.500982 0.147984 -0.004830 
96 -0.105124 -0.363637 -0.193064 -0.168983 0.254613 0.149633 0.161139 0.113469 0.056852 0.042109 0.105959 0.111810 0.283948 -0.192311 -0.098504 0.015075 -0.166096 -0.035774 -0.074255 0.069910 -0.314284 -0.275824 0.091252 -0.192901 0.317936 -0.190996 -0.066368 0.506085 -0.175650 0.339609 0.408061 0.075913 0.069207 -0.151489 0.092009 0.006935 -0.113183 0.065333 0.233605 0.114278 -0.500398 0.042685 -0.216228 0.350827 0.191307 -0.282712 0.163885 -0.383397 0.146741 0.101568 -0.160806 -0.071743 0.286461 0.127174 -0.136654 -0.045646 -0.059711 -0.074661 -0.107662 0.088329 -0.002545 -0.160449 0.188753 -0.124752 -0.151393 -0.363386 0.281614 -0.060204 -0.451824 -0.104153 0.173631 0.109156 -0.161632 0.307743 -0.229715 -0.033665 -0.042913 0.312177 0.231364 0.095493 -0.141555 -0.108265 -0.129741 0.050882 -0.328869 -0.102706 0.094424 -0.033405 0.412298 -0.069996 0.357475 -0.072057 -0.018461 0.078049 -0.129581 0.148994 -0.355015 -0.087069 -0.330177 0.031705 -0.002751 -0.212749 -0.218542 0.272847 0.337147 0.061329 -0.357143 -0.196197 -0.164346 0.130843 -0.095696 0.109190 -0.076383 0.195456 -0.193879 0.383331 -0.283106 0.400747 0.296194 0.026526 0.052314 -0.052902 0.050024 -0.129873 -0.459203 0.353422 0.055157 -0.059237 
357 0.023928 0.320293 -0.146608 0.191898 -0.030512 -0.169268 -0.225681 -0.154130 0.113961 0.139253 0.161329 0.100875 -0.113505 0.025359 0.008898 0.050407 -0.067476 -0.517535 -0.059641 -0.014051 0.095294 -0.048508 -0.022814 -0.449092 -0.256438 -0.216074 0.124185 -0.336836 -0.317855 0.074552 -0.145071 -0.145379 -0.085522 0.059873 0.262214 0.332944 0.153517 -0.213498 0.085453 0.037052 0.011544 -0.234889 0.115602 0.206305 -0.019540 -0.119779 0.145971 -0.333697 0.090006 -0.094756 -0.058107 0.239599 -0.065804 -0.221299 0.078772 0.237087 0.029112 -0.232800 0.209079 0.293075 0.350023 0.055861 -0.076521 0.075824 0.450933 -0.375090 -0.028648 -0.158859 -0.119029 0.019769 0.146133 -0.052662 0.020352 -0.032853 0.054129 0.041974 0.485352 -0.208007 -0.126444 -0.079548 -0.097392 0.081042 0.039896 0.269709 0.009431 -0.069253 -0.112594 -0.013647 0.253233 0.046544 -0.071957 -0.554311 -0.370286 -0.322216 -0.182455 -0.067271 -0.081964 -0.145896 -0.118289 -0.038564 -0.190704 -0.304917 -0.201497 0.131490 0.134527 -0.111034 -0.001945 -0.398295 0.376954 0.139307 -0.070579 -0.075886 0.111837 0.109877 -0.069721 -0.242849 0.286100 0.038484 -0.113594 0.084261 -0.094865 0.088694 0.022066 0.017984 0.346978 0.061233 -0.091893 0.161843 
204 0.180299 0.232328 -0.034716 0.242211 0.175974 0.123783 -0.125099 0.125123 0.034791 -0.086310 0.015423 -0.145117 -0.177908 0.085237 0.067589 -0.027592 -0.322440 -0.074893 -0.184994 0.110543 0.147023 -0.156084 -0.351894 0.032011 0.269174 -0.188022 0.349308 -0.099301 -0.096874 0.224546 0.258173 0.028974 -0.089453 0.123640 -0.225821 -0.325062 0.043930 -0.316416 0.272949 0.083573 -0.237251 0.447156 -0.185582 -0.065145 -0.129239 -0.035803 0.011065 0.038446 -0.015993 0.128441 -0.057028 0.071500 0.037200 -0.206372 -0.340315 -0.011077 -0.156555 -0.124347 -0.321032 0.127169 -0.135948 -0.050565 0.133000 -0.259131 -0.003944 0.275894 -0.377598 -0.351211 -0.063031 0.186014 -0.022685 0.272869 -0.161838 0.323614 -0.087861 0.233997 0.144322 0.084401 0.062956 0.044476 0.222248 0.041130 0.327557 0.117024 0.029887 -0.369961 -0.131925 0.282452 0.254534 -0.079967 -0.011915 0.059575 0.018011 0.082416 0.175171 -0.138152 -0.280465 0.146833 -0.052550 -0.090375 -0.172479 -0.214142 -0.182473 -0.102616 0.278407 0.082285 0.430371 -0.188866 -0.176353 -0.109475 -0.417232 -0.108955 0.005170 0.035805 0.169037 0.021729 0.115137 -0.026956 0.397036 0.029709 -0.160994 -0.238662 0.110729 0.279559 -0.280568 0.032951 0.470345 0.323289 
89 0.124003 -0.106521 0.112066 -0.024825 -0.006047 0.052994 -0.180037 0.201370 0.178263 -0.198519 0.245311 -0.048241 0.128782 -0.066145 0.000202 0.155308 -0.205533 -0.359484 0.158248 0.227390 -0.294462 0.004897 -0.252363 -0.264523 -0.005298 0.029767 0.003313 0.370333 -0.233739 0.203205 0.270779 0.348618 0.308289 -0.126903 0.210438 0.113470 -0.006998 0.017965 0.189578 0.227525 -0.529386 0.081517 -0.381336 0.526524 0.133803 -0.064462 0.026596 0.147630 0.111366 0.195217 -0.380314 0.057684 0.485597 0.177977 -0.266774 0.189937 0.153309 -0.119357 -0.386870 0.139609 -0.311133 -0.215569 0.190353 -0.489011 0.117017 -0.280406 0.006449 -0.064555 -0.171854 0.104090 0.357463 -0.044207 -0.061993 0.194790 -0.355373 0.317926 -0.070146 -0.028276 -0.053526 -0.027754 0.016712 -0.218611 0.159032 -0.073094 -0.056177 -0.073682 -0.282690 -0.195199 0.160923 -0.352812 -0.034969 -0.083634 -0.246943 0.167565 0.049174 -0.227657 -0.200523 -0.001226 -0.029073 0.357793 0.007533 -0.029952 -0.163112 -0.033579 0.322564 -0.104875 -0.231254 0.072160 0.012510 -0.067281 0.005202 0.093527 -0.247428 0.158845 0.019124 -0.056301 -0.270936 -0.034816 0.160817 0.128554 -0.168029 0.300270 0.140057 -0.049208 -0.483891 0.139464 0.180412 -0.059078 
22 -0.471678 -0.025019 -0.416683 -0.046673 -0.022389 -0.347437 -0.006408 0.186576 0.233416 -0.339345 -0.065338 -0.247327 -0.354202 0.233608 0.088031 -0.198526 -0.379844 -0.232223 -0.051234 -0.164406 0.022065 -0.052564 -0.118293 -0.369471 -0.103822 0.226810 -0.132651 0.201532 -0.046733 -0.179832 0.180165 -0.096988 -0.186587 -0.720939 0.304177 0.106550 -0.363415 -0.053520 -0.258661 -0.154745 0.181189 -0.146137 -0.441908 0.278438 -0.232364 -0.265386 0.428750 -0.113255 -0.101338 -0.013696 -0.474708 -0.034026 0.083230 -0.319504 -0.026622 -0.015383 0.256599 -0.155080 -0.317071 -0.058135 0.010258 0.175606 0.267905 -0.290836 0.101388 -0.093606 -0.232767 -0.220618 0.209186 0.143301 -0.185275 0.161014 0.018119 -0.003701 -0.081174 0.219884 0.071578 0.528336 0.042357 0.135253 -0.131267 -0.203526 0.199444 -0.141147 0.066727 0.188416 0.114349 -0.241022 -0.191211 -0.187209 0.047161 0.229209 -0.169063 0.390714 0.322503 0.040889 0.155894 0.050197 0.263466 -0.046685 -0.157695 0.069364 0.157506 -0.026103 0.367164 -0.066643 -0.287024 -0.037592 -0.533880 -0.121109 0.439775 -0.347717 -0.193166 0.100811 0.185019 0.094254 -0.255821 0.115593 0.397694 -0.151315 -0.058690 0.268327 0.182182 -0.340564 -0.388235 0.579335 0.256841 -0.130913 
191 -0.135655 0.243723 -0.269341 -0.064991 0.148494 -0.225446 0.081810 0.164573 -0.106567 -0.072619 0.438676 0.130477 -0.017731 0.114753 -0.112399 -0.095829 -0.341935 0.166038 0.113461 0.079641 0.040707 0.036467 -0.172811 0.028420 -0.019255 -0.347546 0.173702 0.182125 -0.015127 0.058218 -0.161636 0.145948 -0.010559 0.064241 -0.185902 -0.272433 -0.195911 -0.411323 0.195163 0.228168 -0.256858 0.142832 0.147970 0.155658 -0.119684 0.032297 0.257095 0.135046 -0.331931 -0.159884 -0.037925 0.042363 0.210746 -0.198481 -0.125589 -0.024031 -0.248305 0.123145 -0.077584 0.199713 0.104348 -0.313479 -0.061188 0.081979 0.069285 0.180817 -0.351227 -0.134325 -0.271599 0.335385 -0.367320 0.332836 -0.178374 0.351893 0.137744 -0.134694 0.339116 0.147615 -0.031055 0.050611 0.473597 -0.065746 0.477849 -0.023121 -0.002754 -0.065801 -0.092545 0.032853 0.021503 -0.445020 0.195549 0.017981 0.085579 0.193206 0.179731 -0.241914 -0.249728 -0.277503 -0.199640 0.146836 0.054043 -0.150846 -0.032215 -0.085738 0.137634 0.017710 0.089388 0.196161 -0.445580 0.010945 -0.134298 0.181717 -0.166956 -0.069474 -0.052498 0.082518 0.062006 0.135452 0.170959 -0.090077 -0.572078 -0.179122 0.036047 0.073793 -0.390322 -0.149571 0.430069 0.268298 
222 -0.200605 0.336929 0.126287 0.253288 0.178747 -0.248268 0.000626 0.257841 0.128022 0.020189 -0.055762 0.093902 -0.075373 0.030288 -0.220086 -0.217319 -0.200567 -0.190814 -0.041117 -0.191387 -0.003166 -0.326955 -0.309417 0.132528 -0.216003 0.084157 0.032421 0.105516 0.012560 0.120135 0.345109 0.000413 0.115913 -0.129503 -0.324688 -0.339022 0.268429 -0.348038 0.030807 0.084463 -0.319869 0.080058 -0.036304 -0.090772 0.030470 0.019060 -0.064331 -0.183707 -0.027786 -0.105762 -0.195348 -0.089600 0.455285 -0.384179 -0.313422 0.047813 0.139886 -0.124651 -0.275607 -0.103177 0.076508 -0.318552 0.304071 -0.090855 -0.078395 -0.146034 -0.395515 -0.198946 -0.370763 -0.080847 -0.123468 0.246841 -0.388967 -0.117014 0.333187 0.125292 0.431930 0.141654 0.120324 0.018445 0.017751 0.046580 0.037349 0.219128 -0.375931 -0.067013 -0.080766 -0.049368 0.105660 -0.123770 -0.069902 -0.136066 0.266905 -0.230557 -0.009531 -0.146390 -0.168494 0.048498 -0.049738 -0.305412 0.004806 0.226184 0.034261 -0.018194 0.103194 -0.255420 -0.182609 -0.191618 -0.241255 -0.202971 -0.152338 0.091798 0.276022 -0.060016 0.059765 -0.098467 -0.130250 -0.254013 0.250295 0.162480 -0.119515 -0.005126 -0.123094 0.028792 0.095285 -0.115036 0.113572 0.140183 
483 -0.138258 0.304925 -0.005855 0.225533 -0.065407 -0.236091 0.312921 0.072478 0.175314 -0.177108 0.118360 0.000892 -0.160972 0.053568 -0.110050 0.151894 0.115301 -0.005620 0.060707 -0.261036 -0.138071 -0.007070 0.457125 0.070830 0.024328 -0.070829 -0.038766 -0.239988 0.569750 0.152967 -0.033687 0.005309 -0.070831 0.334999 -0.004432 0.118180 0.222481 0.008724 -0.217581 -0.092701 -0.261327 0.203264 0.294512 0.000679 0.022956 -0.128308 -0.041164 0.105879 0.388276 -0.086041 0.076728 -0.354406 -0.388961 -0.264830 0.168013 -0.052999 -0.078814 0.175036 0.161969 -0.095891 0.047205 -0.145632 -0.115314 0.176268 -0.203690 -0.066531 -0.056281 0.010915 -0.211534 -0.039810 -0.477848 0.318486 -0.141928 -0.208070 0.019203 -0.177868 -0.077811 -0.121145 -0.180403 0.216334 0.406887 -0.291392 -0.259628 -0.123941 0.027547 0.110622 -0.086679 0.016453 0.146823 0.139660 -0.068010 -0.049460 -0.399551 -0.047142 -0.039127 0.123775 0.038515 0.133359 -0.382920 -0.076902 -0.225156 0.021015 -0.025343 -0.261609 0.258282 -0.256252 0.427039 -0.442424 -0.277894 -0.066218 -0.080524 0.056755 -0.120926 0.276263 -0.311445 0.214009 0.150881 0.276313 -0.127347 0.141130 0.110520 -0.413284 0.240147 -0.037862 0.266369 0.333636 -0.286213 -0.141658 
183 -0.213143 0.100356 -0.025454 0.416004 0.288106 0.162983 0.059272 0.140915 -0.179250 0.071199 0.294380 0.148597 -0.069066 -0.280979 -0.403925 0.088128 -0.442230 -0.117291 0.014557 0.076748 0.073003 0.020183 -0.245306 0.069992 0.154314 -0.082604 0.500891 -0.074126 -0.106945 0.373210 0.132022 0.059883 -0.265519 0.107893 0.126750 -0.143722 0.024242 -0.100442 0.353555 -0.034105 -0.328423 0.104234 -0.238629 -0.097412 0.019271 -0.088475 0.223007 0.062082 -0.260286 0.234262 -0.039993 0.224669 0.288844 -0.203459 -0.363466 0.087587 -0.084775 0.087772 -0.283583 -0.077905 -0.117214 -0.093463 -0.272234 -0.250365 0.189991 0.180854 -0.273373 -0.102457 -0.094421 0.382877 0.056485 0.151886 -0.391257 0.262640 0.069948 0.044021 0.471964 0.387792 -0.111514 0.236631 0.501767 0.292480 0.156494 0.018178 0.004770 -0.423006 -0.111615 0.460592 0.213350 -0.050930 0.079480 -0.030579 -0.141547 0.121254 -0.163911 -0.246993 -0.268620 -0.151743 -0.353475 -0.103587 0.132877 -0.235067 -0.415687 0.141861 0.467099 0.064403 0.111404 0.256554 -0.502335 0.329862 -0.066594 0.303030 -0.243854 0.067475 -0.102925 -0.055043 -0.098221 0.037077 -0.001685 0.156000 -0.297552 -0.091669 -0.097529 0.025103 0.068225 0.139098 0.346691 -0.033944 
9 -0.154103 -0.089241 -0.092431 0.048999 -0.111618 -0.092155 -0.129180 0.118160 -0.051633 0.041903 0.157036 -0.225219 0.232113 -0.092462 0.224598 -0.290207 -0.310066 0.068981 -0.111842 -0.163092 0.278583 -0.115092 -0.116948 -0.029644 0.082086 -0.430506 0.401407 0.136608 0.136394 0.272290 0.595270 0.382689 -0.208798 -0.079952 0.275519 0.131850 -0.232870 0.291574 0.127650 0.398171 0.032018 0.010775 -0.303584 -0.207742 -0.452785 -0.339394 0.327188 -0.062690 -0.171487 -0.032834 -0.215146 -0.160232 0.047708 -0.041785 -0.127269 -0.119274 0.163763 0.020085 -0.084276 -0.408800 -0.101393 -0.120919 0.109470 0.092639 0.154188 -0.301355 -0.137099 0.238387 0.066426 -0.076010 -0.065113 -0.049551 0.356033 -0.042050 0.070196 -0.004616 0.127625 0.542329 -0.071986 0.676586 0.138526 -0.447491 -0.140148 0.047631 -0.008739 -0.343053 -0.003757 -0.135350 -0.539414 0.002099 -0.183992 0.054849 -0.018421 -0.055399 0.084254 0.284040 -0.141726 0.447250 -0.047744 0.000414 -0.284592 -0.031014 0.034697 -0.422124 0.251809 0.140779 -0.450445 -0.046970 -0.074577 -0.097819 -0.005658 -0.188141 -0.285266 -0.128259 0.107642 -0.039862 -0.391282 0.350487 -0.044230 -0.294024 0.049062 0.379471 -0.365218 -0.362237 -0.263197 0.118752 -0.067696 0.125022 
275 -0.069123 0.353208 -0.008625 -0.112335 0.055452 0.106704 -0.089654 0.001708 -0.164263 0.143091 0.187011 -0.100073 -0.192729 0.289537 0.055122 0.095829 0.063457 -0.165466 -0.271230 -0.248910 0.061501 0.111116 -0.294975 0.171131 -0.013016 -0.228594 0.308285 -0.268191 0.097243 0.166653 0.011297 0.100841 -0.337270 -0.009714 0.198563 -0.087563 -0.078103 -0.614443 0.044354 0.181309 0.317410 0.011458 -0.015252 0.166052 0.035055 -0.224014 -0.281400 0.040354 0.113439 0.298600 -0.046454 -0.203874 0.209249 -0.035999 0.075122 0.077947 -0.368291 -0.139751 0.225240 0.201102 0.279316 -0.379381 -0.188737 -0.165073 -0.044276 -0.061145 -0.382683 -0.176012 0.062578 -0.249452 -0.186902 0.061551 -0.407379 0.061711 0.167577 0.052931 0.249728 0.123573 -0.316227 0.093670 0.214218 0.030864 0.309184 -0.140067 0.179230 0.007236 -0.391067 -0.159678 -0.102608 0.252820 -0.424186 0.151632 0.173257 -0.080981 -0.118251 0.033518 0.028956 0.250411 -0.048199 -0.017896 -0.323428 -0.125433 0.040054 0.154277 -0.218633 -0.277134 0.320648 -0.275807 -0.227833 -0.222605 -0.122694 -0.019437 -0.151226 -0.178514 0.016907 0.249569 0.027548 -0.028831 0.139852 0.171499 -0.270555 -0.230214 -0.399186 0.093149 -0.204880 0.307671 -0.231471 0.154224 
176 0.066772 -0.112170 0.191607 0.251435 0.205899 -0.110838 0.131983 0.245127 -0.167919 0.024637 0.356595 0.221530 -0.070188 -0.235065 -0.094008 -0.046346 -0.167258 -0.370052 -0.194716 -0.168832 -0.033396 0.069328 -0.214806 -0.009357 0.322209 -0.429021 0.311051 0.077607 -0.167028 0.375085 -0.239609 -0.170930 -0.113624 0.224413 -0.056289 -0.190000 0.065868 -0.251191 0.533679 0.157493 -0.692522 0.139579 -0.273305 0.314043 -0.231129 0.046635 0.103309 0.116367 0.070620 0.054834 -0.163228 0.215746 0.351094 -0.306801 -0.320783 0.123452 -0.128924 -0.020154 -0.040013 -0.047647 0.099956 -0.246302 -0.149043 -0.260451 0.079463 0.229146 -0.267165 -0.117123 -0.380392 0.134987 -0.104087 0.109855 -0.337814 0.098348 -0.000831 0.061444 -0.024165 0.210324 0.056845 -0.007899 0.106857 0.404360 0.087610 -0.031326 -0.067437 -0.076040 -0.105978 0.491622 0.238184 0.014593 0.142964 -0.179663 0.017189 0.412878 0.166438 -0.363895 -0.163127 0.210118 0.015615 -0.125744 -0.243693 -0.096118 -0.326254 0.111416 0.097152 -0.065080 -0.259518 0.119945 -0.314543 0.344356 0.158756 0.229226 -0.231166 0.306016 0.193195 0.144847 0.133669 0.112181 0.033342 0.232542 -0.290993 -0.125821 -0.052803 -0.135287 -0.230944 0.132928 0.286615 0.169571 
257 0.237322 -0.052565 -0.036913 0.056081 0.344503 -0.101834 -0.145867 0.210666 0.181245 0.371202 -0.037107 -0.006262 -0.355524 -0.374394 0.199029 -0.011384 -0.333796 -0.171645 -0.293988 -0.246150 -0.059452 0.014301 -0.060173 0.105695 0.202955 -0.122351 0.054508 0.302626 -0.263716 0.026654 0.231786 0.223948 -0.142079 0.182015 0.001132 -0.045990 0.202172 -0.371218 0.131931 0.303118 0.229396 0.221451 0.032113 0.055331 -0.118118 0.145698 0.135473 0.169568 0.042810 -0.239678 0.164872 -0.243344 0.021544 -0.093902 -0.026458 0.322041 -0.231496 0.299060 -0.104160 -0.139615 0.142911 -0.146225 0.154106 0.131324 0.190242 -0.286651 0.294208 -0.261181 -0.038753 0.078667 -0.054157 0.073174 -0.086961 0.061438 0.398012 -0.072037 0.012593 -0.070520 -0.035821 0.165614 0.207947 -0.061747 0.136884 -0.251632 -0.066977 -0.230703 -0.223630 -0.009983 -0.295370 0.303580 -0.248032 0.109845 0.451031 0.004576 0.233315 0.069666 -0.010211 0.127376 -0.068510 -0.050188 -0.299124 -0.035574 0.090336 0.063229 -0.221632 -0.233566 -0.088377 -0.352966 -0.412642 -0.177975 -0.368092 -0.307163 0.100004 -0.112182 0.033350 0.351433 0.030680 0.002651 0.000818 0.148944 -0.316742 -0.165766 -0.252559 0.104518 -0.005757 0.164415 -0.173851 0.271015 
427 0.081484 0.301330 0.050770 0.406794 0.024795 -0.189207 -0.219218 -0.030440 0.203703 -0.106005 0.038590 -0.023037 0.036352 0.137306 -0.282072 -0.116319 0.042080 -0.191907 0.131879 -0.168272 0.164117 0.102581 0.065042 0.198074 -0.034277 -0.207000 0.468956 -0.016108 0.156851 0.003452 -0.088409 0.146709 -0.056564 0.297342 0.062272 -0.032374 0.119900 0.191178 -0.117299 0.020894 0.322047 -0.166985 0.146601 0.241959 -0.066911 -0.154646 -0.278449 0.103737 0.014913 0.306076 -0.139383 0.213381 0.011532 -0.269353 -0.532046 -0.014516 0.041425 0.166691 0.007628 0.492970 -0.098314 -0.138892 -0.448877 0.105156 -0.026557 -0.165551 -0.415247 0.019825 -0.014296 -0.055264 -0.266418 0.151834 -0.293553 -0.086176 0.053074 -0.240955 0.056808 -0.093778 -0.384946 -0.401883 0.135398 0.302213 -0.174985 -0.019811 0.044067 0.141340 -0.064086 -0.183923 0.225507 0.108012 -0.054207 -0.061976 -0.381391 -0.090578 -0.061826 -0.484473 0.093567 -0.267838 -0.050630 -0.303365 0.159086 -0.011595 0.096737 -0.200085 -0.020994 0.310295 0.534415 -0.103020 0.004519 -0.177226 -0.035042 -0.056727 0.215611 0.052672 -0.239879 -0.032820 0.211615 0.023099 -0.098298 0.363155 0.228480 -0.357057 0.057006 -0.033574 0.040825 0.210842 -0.000887 0.042450 
216 -0.060798 0.349684 0.137480 0.356287 0.135162 0.080191 -0.260929 0.085028 -0.119154 0.123657 -0.151436 0.014723 -0.124936 0.410097 -0.133403 0.000869 -0.286046 -0.198886 -0.162810 0.030685 0.207498 -0.193339 -0.230395 0.219857 -0.012568 -0.264162 0.248793 -0.314135 -0.124077 0.016146 0.172722 0.212412 -0.056532 -0.029020 0.195049 -0.098999 0.320219 -0.082240 -0.234892 0.362893 -0.048536 0.480668 -0.271842 -0.023512 -0.270731 -0.059796 0.110405 -0.209487 -0.225867 0.163518 0.125649 0.171954 0.318318 -0.495742 0.089251 0.177982 -0.038584 -0.263824 -0.323939 0.063497 0.050602 -0.330073 0.036757 -0.078835 -0.030844 0.040000 -0.442006 -0.023971 -0.108160 -0.190271 0.003853 0.077001 -0.273511 -0.054582 -0.156943 0.289649 -0.150098 0.124709 -0.221293 -0.174894 0.132763 0.306586 0.369660 0.083443 0.002867 -0.202217 -0.037931 0.078438 0.121823 0.067968 0.048956 -0.138165 0.073324 -0.023845 0.022921 0.064001 -0.149700 -0.152725 0.046683 -0.193374 -0.233120 0.116023 0.283111 0.153263 0.285398 0.021904 0.400886 0.036202 -0.204797 0.293720 -0.148697 -0.321861 -0.135479 -0.016028 0.206569 -0.368532 0.208330 0.288408 0.319623 -0.029058 0.175105 -0.224913 -0.085734 0.042238 -0.150633 -0.000259 0.234084 0.155974 
294 -0.040386 -0.065214 -0.248862 0.042347 0.195469 0.427949 -0.108327 0.163794 0.314406 -0.018778 0.120221 0.028891 -0.136556 0.104840 0.072546 -0.083831 -0.321229 0.103498 -0.570387 -0.213582 0.007464 -0.433545 -0.176147 -0.005090 0.074675 0.150844 0.183697 0.019567 -0.198517 -0.073164 0.029660 -0.192793 -0.244797 0.169613 -0.496956 0.374097 0.090671 -0.039317 0.246942 -0.069921 0.536268 0.205739 0.103089 0.022757 -0.095196 -0.099440 0.375602 -0.269383 -0.064980 -0.042701 0.288702 0.380237 -0.600704 -0.063770 -0.026676 0.270595 -0.269139 -0.053170 0.416954 -0.075600 -0.028459 0.102024 0.071113 0.230411 0.171602 -0.191824 0.085019 0.248412 0.015210 0.025549 0.181674 -0.260189 -0.206327 0.109123 -0.020767 0.244377 0.233284 -0.121933 0.026370 0.026626 -0.206845 0.251232 -0.276762 -0.259265 -0.132324 0.115529 -0.654106 -0.031301 0.035110 0.041339 -0.352952 -0.332765 0.095991 -0.106370 0.241110 0.289279 0.171782 0.153460 -0.050502 -0.225378 -0.215193 0.398380 0.087384 0.410915 -0.037463 0.001011 -0.032907 -0.358377 -0.420657 0.117834 -0.165931 -0.629770 -0.058507 -0.031197 -0.133086 0.146479 -0.053952 0.080206 -0.311342 0.285441 -0.242617 -0.099811 0.123359 0.135198 0.149124 -0.113178 -0.182882 0.055469 
28 -0.453913 -0.041301 -0.284219 -0.091613 0.203515 -0.314712 -0.060298 0.246310 -0.051989 0.018694 0.124917 0.014036 -0.167107 0.028400 -0.117344 -0.267957 -0.291439 -0.283510 -0.079475 -0.157443 -0.292242 -0.198184 -0.231580 -0.189927 0.226309 0.085750 0.057064 0.344727 0.028756 0.045905 0.218854 0.307973 0.115931 -0.417273 0.323550 -0.004659 -0.261097 0.290403 0.034899 -0.083084 -0.062089 -0.374570 -0.217391 0.074467 0.138392 -0.121603 0.222612 -0.146059 -0.219884 -0.208115 -0.325095 0.012464 0.302172 0.034102 0.238026 0.186433 0.125386 0.014689 -0.234838 0.132076 0.239504 -0.099206 0.084416 -0.083913 -0.034108 0.066390 0.051720 0.024028 0.132779 0.324380 0.060496 0.419900 0.251262 -0.001029 -0.134604 0.070844 0.178691 0.456038 0.118522 -0.363800 -0.125515 -0.237197 0.396690 0.264065 0.077987 -0.195356 0.084780 -0.150729 0.012085 -0.169714 0.181935 0.406628 -0.295948 0.482431 0.011930 0.073029 -0.146374 0.459665 0.131568 0.261878 -0.375156 0.165826 0.357215 0.131705 0.212019 -0.191647 -0.141960 -0.064182 -0.240844 0.072640 0.424393 0.236768 0.045930 0.012420 0.329676 -0.184007 -0.291993 0.369760 0.372256 -0.241515 0.302883 0.284752 0.045685 -0.383146 -0.217283 0.322136 0.244603 0.050354 
15 -0.208916 -0.193014 -0.070220 0.081814 0.353281 -0.204197 -0.706359 0.148879 0.622727 -0.275024 0.213476 0.120410 -0.031041 -0.155528 0.085277 -0.342602 -0.394488 -0.212837 0.085626 -0.310064 0.146379 -0.315174 0.117901 0.003176 -0.286753 -0.141621 0.002430 0.155467 -0.035577 0.177504 0.420505 0.428823 -0.242921 -0.556563 0.210943 0.318031 -0.102561 -0.126152 0.084139 -0.091667 -0.083816 -0.228340 -0.286609 0.201086 -0.206818 -0.089518 0.038314 -0.133577 0.082956 0.551960 -0.431170 0.167222 -0.140083 0.035886 -0.031625 -0.025297 -0.151909 0.310595 -0.066672 -0.475298 -0.309061 -0.022127 -0.132847 -0.213568 0.244252 0.047377 0.013381 0.012499 -0.172672 0.402288 -0.187697 0.043190 0.298029 -0.000002 -0.238534 -0.198797 -0.042288 0.222037 -0.143340 0.587436 0.276959 -0.256566 0.229817 0.036360 0.170578 0.033640 0.160790 -0.097635 -0.525918 -0.132601 0.161832 0.085448 0.075776 0.081476 0.117027 0.146084 0.164695 0.058785 0.204807 0.259114 -0.194589 -0.016767 0.043105 -0.144608 0.330684 0.221787 -0.188645 -0.002529 -0.252249 -0.406405 0.174992 -0.051640 0.088113 -0.218442 0.168428 0.101378 -0.198749 0.045380 -0.279978 -0.005783 -0.066658 0.202287 0.072369 0.165767 -0.016427 0.252025 -0.240156 0.239472 
423 0.094048 0.212066 -0.109448 0.116994 -0.156427 -0.031256 -0.086445 -0.441977 -0.128883 0.147133 -0.042544 0.028934 0.108353 -0.024658 -0.256734 0.023568 0.106960 -0.293035 0.298770 0.023029 0.050545 0.189440 0.052889 -0.010448 -0.357428 -0.200293 0.114509 -0.185766 -0.366627 0.462826 -0.015172 0.103266 0.048231 0.338824 0.259512 -0.118868 0.007042 0.149236 -0.390609 -0.030788 0.179515 0.226606 0.026790 0.047651 0.359507 -0.099476 -0.006383 -0.462120 0.105492 -0.273448 0.320472 0.027298 -0.074065 0.119788 0.002199 0.394430 0.074148 -0.034165 0.253650 -0.247151 0.353527 -0.514574 -0.390451 0.053038 0.070896 -0.105173 -0.244444 0.163757 -0.039245 -0.003681 -0.220312 0.516045 -0.001083 -0.134338 0.139348 0.114264 0.300067 -0.009046 -0.147292 -0.188746 0.056012 -0.083914 0.207476 -0.062819 0.117981 0.114994 -0.070663 -0.050930 0.123905 0.266973 -0.151407 0.031383 -0.148809 0.086034 -0.101769 -0.247489 -0.199530 0.104223 0.005400 -0.182215 -0.085951 0.373691 -0.286897 -0.434834 0.076029 -0.070401 0.060778 -0.273134 0.230259 0.023046 0.185781 -0.080315 0.161750 0.232508 -0.253880 -0.002881 0.448314 0.308560 0.105116 0.367355 0.033997 -0.050761 -0.023027 -0.003309 0.090701 0.079094 -0.005892 0.083115 
185 0.282352 0.276131 -0.143135 0.382981 0.414210 0.051331 0.031185 0.058243 -0.009907 -0.318446 0.073639 0.431498 -0.148859 0.184276 -0.295168 0.021343 0.038492 -0.118080 -0.156636 0.204556 0.074352 0.067161 -0.174552 -0.047741 0.071848 -0.483876 0.541973 0.008778 0.071551 0.201791 -0.123123 0.018770 -0.241125 -0.330564 -0.375142 -0.220234 0.018511 0.035349 0.225529 0.057568 -0.306669 0.234688 -0.055446 0.102297 -0.300059 0.041039 -0.013314 0.158282 0.139738 0.131279 -0.102902 0.462293 0.210564 -0.246557 -0.325685 0.227534 -0.376393 0.169468 -0.124595 0.124210 -0.092775 0.005937 -0.020922 -0.313968 -0.066431 0.230780 -0.415722 -0.118779 -0.223571 0.217000 0.220445 0.105493 -0.189480 0.378202 0.049837 0.324428 -0.046394 0.160433 -0.129605 -0.310694 0.047520 -0.015609 0.104073 -0.211729 -0.301118 -0.242967 -0.318858 0.265913 0.256325 0.014172 -0.016807 0.084476 -0.223347 0.042453 -0.004742 -0.073632 -0.213228 -0.109343 -0.096644 -0.117073 0.205377 -0.105704 -0.148904 -0.106725 0.111295 0.291948 0.026406 0.066814 -0.247516 -0.132631 0.063481 0.054338 -0.141225 -0.270969 0.005851 0.109111 0.269214 0.291152 0.363621 0.034391 -0.231998 -0.175572 0.353208 0.133751 -0.135314 0.068651 0.242188 0.035265 
603 -0.219852 -0.083159 0.369280 0.035394 -0.064625 0.186360 -0.045456 -0.411682 0.093971 -0.287532 -0.167212 -0.124973 0.152053 -0.255126 -0.426675 0.010570 0.084187 -0.009869 -0.197154 0.159181 0.015121 0.396757 0.039987 -0.491602 0.253667 -0.008372 0.249341 0.108794 -0.010781 -0.072797 0.057852 -0.044010 0.033785 0.208955 0.048447 -0.024678 0.235806 -0.089012 -0.301170 0.058840 0.152591 0.149319 0.117846 -0.223634 -0.057687 -0.234284 0.192924 0.082141 0.185865 -0.047447 0.313114 0.037952 -0.059947 -0.117535 -0.047464 0.018733 -0.315365 0.129323 0.035129 -0.247189 0.146077 -0.068140 -0.320152 -0.207426 -0.243663 0.123020 -0.312379 0.183114 0.365582 -0.165480 -0.181783 0.178425 -0.087197 -0.360538 -0.059914 -0.410433 -0.089987 0.222745 -0.159337 -0.011617 0.046726 -0.400098 0.064701 0.174418 0.330080 0.011063 0.334581 -0.224707 0.294588 0.208483 0.130732 -0.021748 0.058973 -0.159027 0.181449 -0.088230 0.150219 -0.056757 -0.353351 -0.193022 -0.115191 0.145217 0.354657 -0.107811 -0.287746 -0.149173 0.212707 0.031061 -0.150447 -0.082913 0.114851 0.093095 -0.110383 0.184392 -0.316218 0.171766 -0.162460 -0.174670 0.046467 -0.165250 -0.421861 -0.149977 0.272617 0.000892 0.123167 0.471152 -0.172631 -0.332122 
202 0.062358 0.213366 -0.162591 0.119698 0.009843 -0.136411 -0.186692 0.348390 0.025517 -0.382033 -0.017999 0.243797 -0.216441 0.193092 -0.166272 0.078252 -0.278359 -0.113106 -0.066490 0.149595 0.342693 0.234826 -0.166065 0.200680 0.181728 -0.450273 0.275975 0.030835 -0.142437 0.138628 -0.207222 0.329224 -0.041325 0.166882 -0.162999 -0.042656 0.120428 -0.095203 0.226223 0.026610 -0.132053 0.513944 -0.473981 -0.267335 -0.062667 -0.031562 0.187199 0.220388 -0.078284 0.091953 0.245993 0.329039 -0.016723 -0.274837 -0.092581 -0.207498 -0.159749 -0.089927 0.190591 -0.011442 0.224445 -0.449236 -0.002558 -0.141557 0.132523 0.346313 -0.256537 0.201414 -0.463475 0.217426 -0.043980 0.299395 -0.467817 0.305116 0.026877 0.121587 0.095354 -0.178240 -0.096983 -0.192679 0.402978 0.091421 0.328322 0.135148 -0.126097 -0.392265 -0.015123 0.198315 0.013300 -0.172494 0.019640 0.259489 0.137938 0.129252 0.084240 -0.182016 -0.286963 -0.063186 -0.107018 -0.428939 -0.103485 -0.226151 0.146347 -0.217970 0.058739 0.271076 0.159083 0.181350 -0.379259 0.118667 -0.343515 0.082552 -0.035902 -0.097269 0.236151 -0.166911 0.032934 0.000704 0.282737 -0.071980 -0.264215 -0.080594 -0.013037 -0.052180 -0.106530 -0.211328 0.302704 -0.103981 
276 0.141646 -0.141182 0.288039 -0.086443 0.059793 -0.101067 -0.327570 -0.276903 0.145942 -0.061626 0.188580 -0.126873 -0.200901 -0.295733 -0.182385 0.280798 -0.412583 -0.097628 -0.087493 0.035039 0.301916 -0.034950 -0.336267 -0.195526 -0.082813 -0.236190 -0.073711 -0.062239 0.266630 0.395383 0.166613 0.227543 -0.377585 0.462488 -0.004662 -0.053949 0.118823 -0.007795 0.278684 -0.028794 0.015689 0.038592 0.037673 0.248761 -0.083655 0.065139 0.112947 -0.061392 0.442315 -0.112193 0.125878 0.167696 -0.011685 -0.162272 0.032846 0.086854 -0.285739 0.012259 0.107646 -0.120807 -0.289552 -0.162413 0.051807 0.317780 0.072717 -0.205830 -0.248977 0.178058 -0.125445 0.210164 -0.132757 0.067343 0.185257 0.097289 0.189387 -0.311079 0.314471 -0.214269 0.221872 0.071892 0.285755 0.136255 0.073684 -0.189942 0.166840 0.070490 -0.267337 -0.123219 0.059573 -0.004115 -0.185418 -0.072579 -0.071155 -0.121313 0.145159 0.227440 0.362420 -0.187520 0.110559 0.223323 -0.023343 0.343196 -0.132883 0.251047 0.216132 -0.253255 -0.047721 -0.411541 -0.138022 0.377281 -0.035146 -0.230181 0.223452 0.114961 0.166040 -0.327133 0.341426 0.291974 0.193226 0.039094 -0.189541 0.070442 -0.438799 -0.163574 -0.294767 0.308943 0.006925 0.015633 
234 -0.161209 0.425212 -0.243132 0.216803 0.021164 0.070334 -0.155976 0.184242 -0.011010 -0.042563 0.295385 0.180394 -0.279276 -0.199865 -0.296366 0.055240 0.028435 0.013324 -0.086878 0.244430 0.077911 -0.204905 -0.063102 0.036621 0.168411 -0.190687 -0.218748 0.099496 0.090042 0.562977 -0.053416 0.061641 -0.186041 -0.094679 -0.210770 0.150598 0.042222 -0.204002 0.369250 0.120487 0.275300 0.276369 -0.045956 0.272959 0.153217 0.072567 -0.250411 -0.531322 0.022232 0.158079 0.365643 0.205801 -0.013005 -0.439121 -0.147426 0.053097 0.119976 0.128041 -0.017437 0.096217 -0.062388 -0.534949 0.150473 0.087995 -0.034367 -0.018319 -0.405692 -0.035493 -0.159074 0.192436 -0.052146 0.075553 -0.250372 -0.198704 0.244130 0.266180 0.234135 -0.023481 0.226094 0.050757 0.350527 0.148204 0.113308 0.329125 0.031808 -0.182812 -0.258833 0.394399 0.045585 0.146953 0.206928 0.037146 0.148909 -0.222206 0.062512 -0.030662 -0.040923 -0.220745 -0.101960 -0.100648 -0.306928 -0.260714 0.069803 -0.008067 0.122542 -0.258162 0.107751 -0.061356 -0.137225 0.307299 -0.369631 -0.087039 -0.106051 -0.327086 0.125157 -0.161965 0.079943 -0.083692 0.081858 0.303403 -0.022675 0.033233 -0.367783 0.062458 -0.127945 0.035362 0.088822 0.342413 
135 0.242305 0.083330 0.258197 -0.282096 0.300849 -0.406436 0.001766 -0.157602 -0.024538 0.062100 0.093180 -0.130957 -0.254171 -0.274507 -0.311309 0.280990 -0.191615 -0.177196 -0.103147 0.169893 -0.364823 -0.171389 -0.117933 0.209643 0.132534 -0.470735 0.164152 0.168158 -0.104050 0.082995 0.227169 0.162114 0.153182 0.097101 0.118191 -0.133199 -0.333435 0.008393 0.169530 0.083671 -0.317390 0.219703 -0.150188 0.367397 -0.113224 -0.019796 0.247260 0.136484 0.114788 0.028716 -0.210141 -0.018509 0.316858 -0.057803 -0.454020 -0.086506 0.156502 0.043309 0.114687 0.294396 -0.236551 0.075406 -0.021531 -0.352726 0.082296 -0.089694 -0.007758 0.171382 0.007234 0.239403 -0.123102 -0.082422 -0.068861 0.301174 -0.118833 0.146046 0.066744 0.177054 0.192672 0.160247 0.572225 -0.018762 0.036387 0.083819 -0.231144 -0.415668 0.098482 0.251847 -0.122831 -0.095921 0.038170 -0.122054 -0.130830 0.428057 0.053624 -0.211116 -0.127045 -0.079931 0.068129 0.512281 0.017041 0.075716 -0.147362 0.062215 0.162337 0.153021 -0.066789 -0.043008 -0.263651 -0.140724 -0.149779 0.134622 -0.303934 0.169513 0.128773 0.286080 -0.088128 -0.073004 -0.023702 0.076411 -0.168503 -0.004624 -0.017831 -0.391247 -0.319551 0.302868 0.060687 0.129289 
238 -0.031856 0.022665 0.142073 0.084190 0.224061 0.020704 -0.124644 0.343978 0.206499 -0.359786 0.285017 0.156731 -0.400715 -0.068576 -0.366238 -0.392316 -0.060687 -0.273544 -0.029521 0.121616 0.038707 -0.157079 -0.085017 -0.096907 0.318166 -0.330318 0.084868 -0.020988 -0.080270 0.304059 0.104045 0.074155 -0.633328 -0.059360 -0.125502 -0.148355 0.384474 -0.143153 -0.119628 0.296565 -0.028270 0.284026 -0.077611 -0.026216 -0.018971 0.092861 -0.132261 -0.262928 0.084301 0.177209 0.199268 0.051472 -0.114943 -0.391603 0.047529 -0.095841 -0.198733 0.181002 -0.018603 0.192427 0.063424 -0.424064 -0.179909 -0.072303 0.127050 -0.326607 -0.389555 0.214592 -0.188508 0.111457 -0.100747 0.161316 -0.119483 -0.098197 -0.068362 -0.098563 0.351308 -0.037525 -0.161893 -0.216124 0.554422 0.191117 0.498277 0.253692 -0.026751 -0.222411 -0.342371 -0.081417 -0.154435 0.050050 0.013707 0.062479 0.335835 -0.274712 0.019481 0.027837 0.049347 -0.057294 0.004189 0.136286 -0.049117 -0.159048 0.200093 0.123985 0.189827 -0.088086 0.500632 -0.189847 -0.068648 0.129837 -0.155595 -0.312301 0.043828 -0.096793 0.062289 -0.304529 0.019709 -0.325850 -0.190940 0.167971 0.057071 -0.135966 -0.240060 0.096339 -0.166861 -0.065537 -0.082806 0.296884 
496 0.094896 0.339666 0.087898 0.257712 -0.272425 -0.241996 0.111081 -0.172179 -0.181670 -0.248397 -0.062203 0.236534 0.183093 0.149722 0.121617 -0.119290 0.004995 0.031678 0.248903 0.217156 -0.133819 0.445255 0.352067 0.185404 -0.485050 0.001787 0.084908 -0.199197 -0.133330 0.064157 -0.424354 -0.152572 -0.117414 0.053282 0.145302 -0.178192 0.107307 0.069823 -0.380552 -0.017213 -0.040873 0.206704 0.232006 0.177072 0.372556 -0.307580 -0.224825 0.260747 0.413379 -0.447249 0.104034 -0.016271 -0.163046 -0.243473 0.023945 -0.091060 0.018094 -0.020590 0.187107 0.071298 0.136866 0.059288 0.114787 0.082341 0.192738 0.000911 0.138580 0.413331 -0.252965 -0.218167 -0.367536 0.357647 0.011659 -0.160109 -0.238508 -0.002780 0.123268 -0.057350 -0.214865 -0.498205 0.396764 -0.109196 -0.037143 -0.171723 0.339497 0.148750 0.042415 0.180937 0.252778 0.259301 -0.216764 -0.119397 -0.036774 0.141089 -0.115389 0.241475 0.133594 0.413644 0.135245 -0.042895 -0.059222 0.217087 -0.087623 -0.365313 0.253651 -0.137657 -0.048485 -0.210478 -0.253477 -0.029128 -0.266547 0.047293 -0.197305 0.292344 -0.084784 0.434297 0.189665 0.098432 0.069904 0.120422 -0.156556 -0.212136 0.221880 0.109243 0.127666 0.227331 -0.067530 -0.189239 
196 0.121279 0.405474 -0.233868 0.304589 0.129535 0.148579 -0.006205 -0.118519 -0.246801 -0.275562 0.402817 0.059013 0.037764 0.048449 -0.125442 0.012650 -0.227278 -0.176030 -0.257298 0.070610 -0.081930 -0.049074 -0.180223 0.218914 0.141455 -0.385742 0.252912 -0.422901 0.049899 0.392752 0.030730 0.047280 -0.130208 0.137606 -0.107005 -0.062855 -0.090660 -0.297002 -0.018115 0.256618 -0.408339 0.226816 -0.144560 0.014121 -0.045810 -0.010150 0.126567 0.096837 0.067149 0.093714 -0.015530 0.236242 0.212032 0.166057 0.003196 -0.066813 -0.145869 -0.139862 -0.150476 0.240695 0.234348 -0.213807 0.148217 -0.227384 0.081886 -0.132698 -0.340649 0.036560 -0.251886 0.175604 -0.005350 0.095696 -0.404731 0.100367 -0.172189 0.159874 0.411819 0.158064 0.195311 -0.027496 0.324272 0.181444 0.546597 0.337418 -0.029274 -0.392432 -0.134411 0.055221 0.282970 -0.059048 -0.079615 0.251012 0.250230 0.375733 0.091385 -0.145106 -0.430432 -0.193277 0.057200 -0.044901 0.067542 -0.199859 -0.063215 0.038499 0.349144 0.202569 0.199229 -0.102049 -0.396788 0.081519 -0.196771 0.136720 -0.283953 -0.201416 0.066027 -0.018087 0.048803 0.004729 0.403539 0.037970 -0.086839 -0.002570 0.258261 0.041881 -0.303584 -0.025921 0.168084 0.449814 
268 -0.099431 -0.319595 -0.345166 0.025650 0.073644 -0.095020 -0.174705 -0.149709 0.039799 0.135144 -0.182869 -0.298667 -0.291236 -0.156665 -0.224083 0.209839 -0.067225 -0.187292 -0.251929 -0.019888 0.017341 -0.522702 -0.325837 -0.171266 -0.206617 -0.072512 -0.175133 0.030968 -0.019834 0.335777 0.254943 0.120980 -0.024465 0.117447 -0.171210 0.062977 0.128458 -0.336907 -0.046056 -0.016807 0.263162 0.158242 -0.166329 0.534107 -0.005757 0.074430 0.346993 0.043785 0.297646 -0.266886 -0.124503 -0.006438 0.143138 -0.264588 0.068500 0.151619 0.045901 0.239032 0.089321 0.311660 0.060099 0.103627 0.076055 0.322430 0.296450 -0.256690 -0.027424 0.122285 -0.283193 0.212611 -0.021753 0.013621 -0.176879 -0.032354 0.360676 0.467528 0.093530 -0.236321 -0.210992 0.111315 0.260957 -0.243210 0.350265 -0.220675 -0.151166 -0.198047 -0.016317 -0.078787 -0.143706 -0.179806 -0.013786 0.027260 -0.149004 -0.103308 0.060066 0.130944 0.094309 0.153338 -0.091138 -0.186670 -0.250454 -0.108382 -0.254631 0.532727 0.075724 -0.227740 0.181311 -0.376968 -0.167702 0.455771 -0.159554 0.058817 -0.007365 -0.149780 -0.019603 0.066647 -0.218721 -0.005264 0.022904 0.425931 0.146360 0.027225 -0.041047 0.089988 0.200392 -0.050327 -0.240668 -0.208011 
475 -0.061917 -0.005310 -0.108429 -0.260569 -0.156914 -0.323545 0.280616 -0.016345 0.084145 -0.137571 -0.043509 -0.153162 -0.032753 0.017668 -0.127526 -0.222640 -0.443075 -0.218990 0.251386 0.102276 -0.143321 -0.200696 0.019874 -0.179041 0.360741 -0.259164 0.057534 -0.555987 0.089293 0.254314 -0.141135 0.175095 -0.150058 0.361541 0.304170 -0.234184 -0.108153 -0.358550 0.513299 -0.350829 0.089142 -0.282992 0.149475 0.275689 0.138424 0.042165 0.111920 -0.055130 0.216818 0.040969 -0.023865 -0.366702 0.034835 0.620636 -0.150561 0.085651 -0.142009 -0.048393 0.307474 0.018343 0.065208 0.105095 -0.092997 0.144621 -0.093130 0.424330 -0.084290 0.000379 -0.051400 0.134349 -0.101179 0.355862 0.118293 -0.139833 0.124030 -0.053584 0.090500 -0.072404 -0.444677 -0.428544 0.335903 -0.300918 -0.270701 -0.063317 0.304038 -0.105365 -0.056401 -0.035755 0.062590 0.283008 -0.125031 -0.195801 -0.231824 0.080625 0.295066 0.141062 -0.325698 0.006459 -0.183459 -0.355515 -0.221068 0.300790 0.216746 -0.036195 0.111162 -0.169526 -0.090350 0.042668 -0.005778 0.403940 0.025509 0.055380 -0.174851 -0.133709 -0.182332 -0.013217 -0.047805 0.358776 0.360939 0.238531 -0.080413 -0.129210 -0.051877 0.121694 0.229621 -0.053298 -0.181029 -0.324097 
180 0.157356 0.004108 -0.292359 0.111480 0.212766 -0.210933 -0.050566 0.107627 -0.174020 0.074861 0.300136 0.278084 0.083888 -0.078660 -0.319687 -0.065273 -0.283921 -0.184628 -0.018276 0.289284 0.021264 0.093974 -0.351086 0.033725 0.186253 -0.384963 0.208719 0.064461 0.481573 0.188218 -0.034144 0.131044 -0.034858 -0.086865 -0.104073 -0.147616 0.148251 -0.292281 0.061451 0.050040 -0.441089 0.220565 0.049938 0.114583 -0.073493 -0.128691 0.182745 0.036042 -0.113499 0.122856 0.108367 0.282929 0.422851 -0.294526 -0.310633 0.267302 0.232330 -0.099824 -0.040254 0.028009 -0.033725 0.075812 0.039292 -0.120071 -0.062909 0.300893 -0.204140 -0.025827 -0.175509 0.231284 -0.351228 0.118811 -0.118780 0.126179 0.097968 0.009126 0.071074 0.288588 -0.032660 0.071150 0.287075 0.061974 0.172564 -0.099180 0.029397 -0.208848 -0.271181 0.161230 0.014239 -0.217425 0.211727 -0.096380 0.318015 -0.091826 0.128729 -0.067340 -0.424315 -0.292529 -0.017584 0.155503 0.184919 -0.079126 -0.042882 0.068442 0.337593 -0.042800 -0.089946 -0.150245 -0.344834 -0.183399 -0.029200 0.226122 -0.148547 -0.159629 0.239841 0.038112 0.090887 0.104334 0.092420 0.383732 -0.384627 -0.050915 0.162723 0.259553 -0.329260 0.202428 -0.170398 0.102354 
144 0.131093 0.134529 -0.264095 -0.126396 0.063752 -0.074119 0.188492 -0.052388 0.072783 -0.184220 0.166685 0.176805 0.012664 -0.059520 -0.152835 0.113587 -0.374501 -0.247584 -0.154699 0.072796 -0.050225 -0.262442 -0.211173 -0.115507 0.472355 -0.495988 0.431672 0.167564 -0.325637 0.283463 0.272331 0.185919 -0.046606 -0.167508 -0.004498 -0.471507 -0.251941 -0.099387 0.481703 -0.205408 -0.552261 0.273699 -0.178343 0.326836 -0.173628 0.085628 -0.127412 0.099007 -0.001454 -0.072660 0.029877 -0.044425 0.382529 -0.161899 0.011301 0.202751 -0.034918 -0.232668 -0.237280 -0.120508 -0.112142 0.120726 0.361197 -0.295834 -0.096847 0.142226 -0.104591 -0.001757 -0.263666 0.107897 -0.114200 0.125987 -0.320997 0.292843 -0.043970 0.405548 -0.123741 0.507918 0.091615 -0.185347 -0.148255 0.102414 0.226220 0.318478 -0.044720 -0.078955 0.130510 -0.007370 0.190823 -0.218700 0.055610 -0.173473 0.267468 0.237782 -0.171545 0.056404 0.168799 -0.113787 0.118293 -0.094182 -0.009673 0.031321 -0.437667 0.191389 0.128442 -0.177537 0.000070 -0.001355 -0.289352 0.254185 -0.024609 0.378038 0.123022 -0.025115 0.087345 0.092826 -0.140602 0.071547 -0.123491 -0.028737 -0.047103 -0.096222 -0.060898 0.018827 -0.549304 0.154347 0.234275 -0.041686 
182 -0.122295 0.455233 -0.381011 0.005915 0.000232 -0.068420 0.226836 0.233636 -0.170394 -0.142808 0.412209 0.196015 -0.028486 -0.182881 -0.051722 -0.016622 -0.452328 -0.352541 -0.037588 0.170317 -0.015422 0.090316 -0.351582 -0.221127 0.321571 -0.272719 0.113363 0.180570 -0.243568 0.367404 0.269366 0.098115 -0.263663 0.094068 -0.166994 0.065272 0.013502 -0.095360 0.427281 0.209053 -0.541863 0.071861 -0.045181 0.339405 -0.223234 0.012374 -0.176358 0.105786 -0.096329 0.042284 -0.234151 0.306151 0.315890 -0.285236 -0.269597 -0.133557 -0.238154 -0.070930 -0.207745 -0.020000 0.158419 -0.187146 0.000992 -0.393125 -0.036625 -0.008700 -0.327872 0.002810 -0.330698 0.291873 -0.145075 0.001542 -0.322568 0.191387 0.134547 0.072284 -0.129731 0.157790 -0.224101 -0.176409 0.130279 0.206346 -0.128900 0.327478 -0.158438 -0.293555 -0.195174 0.226960 0.137759 0.173739 0.187285 -0.333413 -0.050724 0.003723 -0.059238 -0.041192 -0.212969 -0.293786 -0.259129 -0.013858 0.191364 0.092929 -0.242839 0.292087 0.428356 -0.010599 -0.015253 -0.106455 0.096319 0.198869 -0.101585 0.184231 0.009926 0.000450 0.161414 -0.046373 0.202369 -0.052527 0.135875 0.049537 -0.203837 0.126843 0.119602 -0.189230 -0.032886 -0.110544 0.228673 -0.228534 
70 0.252158 0.083692 0.046210 0.098023 0.211716 -0.349493 -0.198920 0.071774 -0.026920 -0.143106 -0.069329 0.257148 0.260586 0.242469 0.018119 -0.027642 -0.457813 -0.540409 -0.074073 -0.157929 -0.034808 0.174707 -0.336117 0.137338 0.019466 -0.197595 0.432819 0.071129 -0.277751 0.371255 0.350464 0.376888 0.339219 -0.090159 0.557760 0.129402 -0.327992 0.176206 -0.003329 -0.045145 -0.078216 -0.221730 -0.530303 0.343909 -0.123782 -0.198126 -0.041518 -0.196671 0.295104 0.175101 -0.072884 -0.144809 0.342564 -0.209695 -0.049248 0.008441 -0.054337 0.164815 -0.059944 0.382052 0.134163 -0.175856 0.140106 -0.176242 -0.243894 -0.243802 -0.150508 0.175233 -0.207716 0.051129 0.302889 0.269755 0.089904 -0.245214 -0.025066 -0.105254 -0.251886 0.002351 0.005078 0.165949 -0.118345 0.123424 0.264100 0.010200 0.026049 -0.133173 -0.081205 -0.435388 -0.283215 -0.209208 0.327577 0.324879 -0.405216 0.392922 -0.104066 0.107301 -0.022202 0.389748 0.062878 0.277913 0.180802 0.214039 0.066569 0.101088 0.225280 -0.199499 -0.160431 0.043642 -0.223491 -0.021009 0.191190 -0.019141 -0.355421 0.095726 0.063931 0.161068 -0.144418 0.105388 -0.158718 -0.171765 0.075866 0.060583 0.190228 0.122948 -0.269406 0.035745 0.275512 0.004456 
97 0.329770 -0.155168 -0.268399 -0.243955 0.293446 -0.094354 0.182066 0.122367 -0.140679 -0.145462 0.139395 0.237466 -0.042581 -0.163808 -0.078635 0.316882 -0.324500 -0.123786 -0.066504 0.002447 0.035235 -0.101965 -0.084543 -0.079108 0.062032 -0.171289 0.387238 -0.004321 -0.169695 0.201888 0.494126 0.512099 0.100681 -0.001743 0.532414 0.193906 -0.244679 0.138121 0.209410 0.086086 -0.308209 0.046135 -0.342434 0.157752 0.022924 -0.074183 0.118442 -0.101733 -0.087523 0.223800 -0.177080 -0.127571 0.463435 0.049816 -0.522807 0.351580 0.398228 0.150607 -0.358931 0.214616 -0.121690 -0.217031 0.061043 -0.266504 0.115762 -0.068302 -0.034534 0.252914 0.022979 -0.141521 0.005395 0.360902 0.014808 -0.086925 -0.466474 -0.176626 -0.451373 0.270072 0.037947 -0.198818 0.101785 -0.145599 0.227094 -0.040489 0.042596 -0.352126 0.040382 -0.308378 0.181365 -0.274234 0.229744 0.163038 0.096998 -0.030141 -0.116400 -0.155531 -0.228460 -0.016864 -0.364343 0.546239 -0.092864 -0.043523 -0.086035 0.027580 0.325233 0.150523 -0.273910 0.062561 -0.197402 0.005673 -0.312336 0.131121 -0.162346 -0.035634 0.122231 0.246457 0.176949 0.197218 0.108073 -0.048567 -0.127518 0.073222 0.084148 -0.059376 -0.384296 0.260236 0.183257 0.083202 
134 0.194605 0.125538 0.137919 -0.309679 0.252205 -0.072421 0.063515 0.246556 -0.117210 -0.154612 0.180498 0.287455 -0.458015 -0.297966 0.104081 0.267003 -0.228061 -0.346850 -0.141406 0.339852 -0.371123 -0.114697 0.116476 0.160714 0.045748 -0.280446 0.416314 0.373957 -0.063610 0.367184 0.261996 0.394171 0.333665 0.240960 0.448315 -0.113407 -0.204188 -0.354794 -0.089625 0.191242 -0.167801 -0.000740 0.112044 0.135380 -0.201824 0.065490 0.029190 0.187389 0.114748 -0.113890 -0.197355 0.156706 0.342842 -0.128446 -0.274555 0.260298 0.272859 0.146232 -0.141808 0.388877 0.018668 0.151967 -0.150653 -0.203271 0.061341 -0.002098 -0.122530 -0.174536 0.163301 0.365956 -0.006517 -0.108530 0.005532 0.340746 -0.038025 0.109765 -0.155371 0.322916 0.188517 -0.063540 0.336714 0.094002 0.081999 0.036079 -0.272611 0.043029 0.190216 -0.018392 0.020714 -0.068942 0.187841 -0.083403 -0.368925 -0.261464 -0.261936 -0.191527 -0.064885 -0.025519 0.063824 0.202212 0.046897 -0.052682 -0.110025 -0.044474 0.383854 0.219473 -0.001597 0.001549 -0.468978 -0.131029 -0.138487 0.460238 -0.277276 0.358858 0.003190 0.035615 0.016945 0.125437 -0.069517 -0.140618 -0.199714 -0.122889 0.391077 0.082999 -0.273739 0.146068 0.201419 0.422117 
272 -0.319740 -0.103890 0.089851 0.031567 0.243690 0.068710 -0.052225 -0.228401 0.059556 0.734704 0.186916 -0.157719 -0.397722 0.082871 -0.066619 -0.090646 -0.224264 0.213482 -0.126660 -0.221437 0.210161 0.049710 -0.258949 0.016433 0.038047 -0.045555 0.047987 0.158690 0.458897 0.150765 0.395918 -0.527923 -0.259546 0.150226 0.163240 0.011850 -0.098019 -0.132572 0.356356 -0.111537 0.195479 0.219253 -0.063705 0.311460 0.028344 0.042067 0.068663 -0.168926 0.254343 -0.360075 0.277454 0.124843 -0.077598 -0.225468 -0.073229 0.076849 -0.380042 0.301193 0.102362 -0.159747 0.319681 -0.069222 0.087820 0.053211 0.188343 -0.105481 0.050477 0.023961 0.101615 0.250813 -0.077561 -0.184377 -0.481522 -0.187889 0.136074 -0.014261 0.123860 0.120072 -0.133889 0.012457 0.142862 -0.051686 0.421421 -0.588198 0.134538 -0.000395 0.242521 0.147106 0.025996 0.236079 0.125244 -0.368951 0.091780 0.230809 0.067772 -0.286067 -0.254310 0.070868 -0.035547 0.007466 -0.165992 0.075477 0.004158 -0.066569 0.340193 0.041501 0.125812 -0.175615 -0.279152 0.275910 -0.388028 -0.400527 0.051261 -0.273354 0.027283 -0.044896 0.069263 -0.471980 -0.379794 0.352131 -0.333704 -0.096593 0.137168 -0.081864 -0.096633 -0.153066 0.012998 0.506046 
82 0.136610 0.082960 -0.246049 -0.081826 0.009421 -0.235908 -0.181304 0.369584 0.259125 -0.306247 0.055005 0.271525 0.314617 0.060828 -0.108570 0.143488 -0.144785 -0.072237 -0.042275 0.216042 -0.374850 -0.199460 -0.101860 -0.256929 0.071881 -0.200098 0.139334 0.232080 -0.679361 0.159022 0.327384 0.476264 -0.046925 -0.239062 0.634665 0.325173 -0.028254 0.190654 0.216615 -0.099329 -0.106709 -0.032554 -0.399954 0.134297 -0.068950 -0.086972 0.192247 0.101102 -0.195277 0.314586 0.041785 0.021044 0.416262 0.030864 -0.257300 0.071534 -0.136711 -0.083241 0.004232 0.116235 -0.174954 0.082713 -0.130792 -0.301421 0.103736 -0.144640 -0.005023 0.270262 -0.319022 -0.119650 -0.043207 0.329112 -0.116553 0.145507 0.210965 0.032797 0.203193 0.205614 0.124238 0.031002 -0.161007 0.067470 0.221034 0.168782 -0.339650 -0.067315 -0.020519 -0.012346 0.132089 -0.282024 0.266869 0.045205 -0.178031 0.453946 -0.079041 0.088500 -0.321682 0.124483 -0.246203 0.373572 0.168198 0.159808 0.056545 -0.085175 0.177539 -0.329881 -0.248824 0.087638 -0.127147 -0.118623 0.012755 0.217094 -0.114998 -0.019183 -0.106315 0.039457 -0.161657 0.449379 -0.035575 0.107110 0.129777 0.086400 0.218865 0.070320 -0.214062 0.576927 0.397018 -0.215796 
479 0.018988 0.046688 0.169638 0.147665 -0.030965 -0.084247 -0.083147 -0.113933 0.361549 -0.076730 -0.034068 0.226210 -0.028493 -0.125576 -0.033402 -0.132212 0.331312 -0.444202 0.150992 -0.002547 0.236327 0.126077 0.194406 -0.169207 0.048655 0.150081 -0.095378 -0.173002 0.315895 0.193306 0.060870 0.120627 0.016927 0.177702 0.265810 -0.172033 0.400105 -0.234514 -0.179978 -0.059290 -0.000624 0.011490 0.377116 0.485193 -0.172825 -0.051329 0.244303 0.146365 0.136880 -0.085443 0.098262 -0.152844 -0.085386 -0.074884 -0.152226 -0.122106 -0.049481 -0.175560 0.562205 -0.008007 0.154788 0.129805 -0.382196 0.052794 -0.033988 0.347375 -0.119414 0.154635 -0.158217 0.138181 -0.428965 0.361742 -0.335492 -0.300593 -0.087972 0.031334 0.303653 0.009633 -0.250141 -0.388926 0.217234 -0.227399 -0.083673 -0.313416 -0.066090 0.123381 -0.020028 0.076200 0.244621 -0.079215 -0.004610 -0.093026 -0.401959 -0.369679 -0.237413 0.072227 0.214781 0.129184 0.088951 -0.427292 -0.104284 0.254618 -0.127685 -0.166642 0.070097 0.001114 0.131502 -0.468812 0.259300 -0.153123 -0.132601 0.078269 -0.498688 0.230983 -0.308310 0.488295 -0.027398 0.201209 0.214284 0.037499 -0.159535 -0.207637 0.546988 -0.160253 0.395256 0.356269 -0.046747 0.197525 
95 0.278167 -0.013861 -0.028567 0.075293 0.417138 -0.139721 -0.259928 0.374499 0.027637 -0.202506 0.074178 0.157858 -0.103045 -0.030323 0.179402 0.006411 -0.506747 -0.369153 -0.040876 0.217909 -0.073923 -0.300636 -0.230719 -0.016272 0.083285 -0.088202 0.334385 0.402058 -0.466566 0.151808 0.234545 0.151509 0.350191 -0.184850 0.374570 0.176075 -0.164222 -0.034308 0.078530 -0.243212 -0.312027 0.004793 -0.350607 0.390045 0.103252 -0.124381 0.159847 0.102072 -0.027719 0.105486 0.120730 0.077706 0.078819 0.042997 -0.229099 0.329625 -0.218071 -0.033174 -0.084657 0.008899 0.106369 -0.185519 -0.162839 -0.312548 0.113283 0.033177 0.074766 -0.231038 -0.484285 0.074529 0.171263 0.233686 -0.165976 0.196478 0.073078 0.044629 -0.137420 0.082215 0.037751 -0.026766 -0.075436 0.186543 0.320070 0.103963 -0.083329 -0.285383 0.342551 -0.125570 0.034995 -0.055200 0.446003 0.217649 -0.002251 0.456747 -0.216433 -0.022162 0.072319 0.043490 -0.469250 0.428257 -0.132100 0.085118 -0.140907 0.083845 0.213411 -0.134484 -0.121889 0.016034 -0.446814 0.100145 -0.040155 0.420164 0.303027 0.203859 -0.202668 0.151254 -0.178197 0.120508 0.107551 -0.493525 0.031334 0.215873 0.103745 -0.126351 -0.234763 0.408056 0.135948 0.030244 
211 0.261917 0.295373 -0.009331 0.266868 0.243723 0.136654 0.035891 0.259608 0.146062 0.161476 0.013953 0.008981 -0.262148 0.219697 -0.206490 0.019229 -0.281216 -0.355731 -0.256059 -0.057207 -0.041563 0.042289 -0.157390 0.220261 0.166083 -0.126666 0.010117 -0.043523 0.190503 0.512355 0.266474 0.093269 -0.045695 -0.018829 -0.512763 0.135987 0.181587 -0.340519 0.277325 0.095085 -0.205429 0.283668 -0.100500 -0.316514 0.038310 -0.240407 0.223007 -0.090406 -0.085703 0.072914 0.264480 0.479753 0.124188 -0.297785 -0.037845 -0.001993 -0.014009 -0.130499 0.100985 0.298678 0.069783 -0.292754 -0.156019 0.144418 0.100726 0.058316 -0.205226 -0.075225 -0.328723 0.068006 -0.035340 0.055296 -0.201647 0.148700 0.175904 0.263033 0.044023 0.241119 -0.219666 0.098438 0.423148 0.063289 0.295602 0.189599 -0.067108 -0.026889 -0.156184 -0.074309 0.103531 -0.157665 0.002376 0.103735 -0.092463 -0.099592 -0.150055 -0.562544 -0.295207 0.037651 -0.065460 -0.014584 -0.286429 -0.152409 0.230520 -0.069851 -0.026941 0.013009 0.189055 -0.107937 -0.217423 0.142816 -0.148415 -0.202485 -0.004514 -0.195060 0.172213 -0.402050 0.066793 0.014800 0.364030 0.031128 0.027618 0.095726 -0.288912 0.365530 -0.053622 -0.093279 0.180471 0.121378 
405 0.088096 -0.093309 -0.298141 -0.203078 -0.146115 -0.062715 -0.016196 -0.141655 0.116146 -0.049482 0.157785 0.118645 -0.422367 0.312241 0.187444 0.278159 -0.144543 -0.142382 0.257580 -0.155703 0.059433 0.109276 0.309210 0.028843 -0.322589 0.103751 0.354812 -0.072511 -0.055637 0.514394 -0.000379 -0.186975 -0.041283 0.346928 0.086261 -0.043637 -0.075417 -0.296003 0.323826 -0.225751 0.149497 -0.467222 0.046116 0.085847 0.537785 -0.029754 0.301316 -0.453642 0.205571 -0.271687 0.045925 -0.174197 0.134888 -0.104575 0.143385 0.283574 -0.086017 0.171806 -0.168803 -0.312812 0.006161 -0.026760 -0.465800 -0.137957 -0.232845 -0.507466 0.128170 -0.144385 0.119386 -0.248265 0.086764 -0.195544 0.055221 0.414461 0.439648 0.110987 0.340247 -0.122009 -0.323137 -0.506977 0.125311 0.017263 0.197066 -0.149211 0.139471 0.354889 0.026273 0.090740 0.348852 0.074876 -0.342235 -0.163021 -0.106944 -0.183203 -0.026738 0.006696 -0.383300 0.042592 0.552711 -0.218503 -0.319597 -0.097642 0.080635 0.082351 0.424874 0.139859 0.061907 -0.054256 0.026834 -0.030046 0.175279 -0.030681 -0.142477 0.027243 -0.307092 0.488153 0.151203 0.147319 -0.411550 0.207354 -0.056689 0.115621 -0.104167 0.280024 0.399774 -0.018196 -0.334087 -0.459980 
8 -0.331049 -0.340672 -0.304566 0.020868 0.217568 -0.435473 -0.627056 0.181766 0.191045 0.139575 0.215635 0.014721 -0.207970 0.206358 0.227923 -0.065116 -0.150248 -0.010283 0.029477 -0.268448 -0.378293 -0.032967 0.001287 0.137978 0.058146 0.217395 0.066863 -0.033106 -0.438923 0.285582 0.230865 -0.122496 -0.388639 -0.552422 0.167816 0.090155 -0.113031 0.164922 -0.350384 0.245018 0.004396 -0.238209 -0.297492 0.159407 -0.210753 -0.100371 0.332826 0.225776 0.039450 -0.126540 -0.247590 0.152078 -0.025499 -0.128468 0.029217 0.031254 0.117710 -0.257927 -0.233471 -0.304067 0.012976 -0.014254 0.021658 0.043345 0.040656 -0.064422 -0.045620 0.188208 0.168955 0.129238 -0.346472 0.405272 0.269536 -0.067811 -0.074726 -0.112965 -0.177569 0.469154 0.316090 -0.013301 0.198431 -0.576433 0.303103 0.059638 -0.141603 -0.390701 0.066337 -0.534943 -0.122113 -0.385922 0.280624 0.304846 -0.113351 0.565758 -0.144283 -0.013505 0.296870 0.420618 0.059313 0.082831 -0.271726 -0.045189 0.300113 -0.005039 0.461885 -0.137196 -0.334399 -0.309056 -0.676199 -0.384835 0.607351 -0.210983 -0.253344 -0.239487 0.363584 -0.124507 -0.113177 0.285189 0.088286 -0.251563 0.059243 0.338310 0.015449 -0.568859 -0.234302 0.075450 0.161682 0.131186 
23 -0.264222 -0.397872 -0.320935 -0.439804 -0.035713 -0.640767 0.047304 0.082166 -0.049975 0.121730 0.334796 0.311441 -0.073175 -0.002617 0.244872 -0.174802 -0.082047 -0.500040 0.125936 0.250274 -0.444445 0.026276 0.010350 -0.169446 -0.099491 0.160615 0.034960 0.242687 -0.236581 -0.077576 -0.046426 0.060822 0.304398 0.311060 0.398954 0.209606 -0.355554 -0.424834 -0.330987 0.019858 -0.185712 -0.078935 -0.392088 0.007720 -0.302915 -0.011247 0.019182 0.036529 0.313239 0.185125 -0.445533 0.205911 0.257730 -0.319054 -0.139122 -0.168095 0.121253 -0.148486 0.028019 -0.098613 0.009087 0.021949 -0.043975 -0.235303 -0.131486 0.174328 -0.234201 0.057196 0.077550 0.202303 0.192196 -0.143389 -0.031143 -0.165932 -0.064019 0.097887 0.223975 0.567114 0.050008 0.281511 -0.026213 -0.043420 0.173889 -0.104527 0.200392 0.114908 -0.040542 -0.332358 -0.149878 -0.445183 0.019132 0.311703 -0.101705 0.137018 -0.216033 0.040183 -0.134134 0.098694 -0.070999 0.120703 -0.260356 -0.052063 0.386673 -0.184946 0.417050 -0.071000 -0.298976 -0.212204 -0.149915 -0.124667 0.085831 -0.256172 -0.189241 -0.321419 0.194667 -0.191375 -0.162152 0.024747 0.065974 -0.075836 -0.168558 0.384994 0.388596 0.011284 -0.133286 0.474233 0.443121 0.174666 
328 -0.383299 0.329215 0.206979 0.133958 0.506485 0.290069 -0.037633 -0.197485 0.309678 -0.145147 0.065757 -0.040175 -0.399128 0.094731 0.364577 -0.147694 -0.198819 0.312958 -0.073367 -0.101734 0.059745 -0.453138 0.062282 -0.472702 -0.789321 -0.109918 0.340037 -0.152133 0.095879 0.000872 0.171144 0.244000 -0.146628 0.054300 0.068971 -0.121673 -0.042888 -0.254817 0.420067 -0.216047 -0.015978 0.142583 -0.086792 0.097319 0.270007 0.254746 0.621559 -0.151202 -0.183581 -0.048774 -0.070951 0.121273 -0.152453 -0.623039 0.006741 0.643981 0.237716 -0.064980 -0.061872 -0.284757 0.105563 0.017438 0.121031 0.072771 0.351023 -0.113754 0.012631 -0.083683 0.083545 0.123620 -0.065520 -0.374835 -0.002705 -0.422960 0.064410 0.113503 0.205816 -0.060982 -0.120177 -0.579241 -0.593537 0.265127 -0.202196 -0.083580 0.307923 0.255922 -0.202898 0.090999 0.229983 -0.149405 -0.111100 0.086203 -0.118434 -0.261835 -0.367028 -0.268340 0.192341 -0.095391 0.084051 -0.265933 0.065231 0.055570 -0.268649 -0.083423 0.244261 -0.035551 -0.017263 -0.521851 0.011264 -0.275139 0.149331 -0.188034 -0.184265 0.005850 -0.086478 -0.069561 -0.143836 -0.165420 0.224194 0.412002 -0.341256 -0.402445 -0.125936 -0.093499 -0.028147 -0.201202 -0.109214 -0.119693 
655 -0.050047 -0.112935 0.254915 -0.166000 -0.129685 0.004790 -0.054607 -0.013976 0.337373 -0.103526 -0.283031 -0.489506 0.001529 0.243304 -0.209452 0.033944 0.124125 -0.273988 0.050310 -0.184778 0.007853 0.177547 0.053008 -0.364743 -0.406899 0.031354 -0.085909 -0.108567 -0.121635 0.439207 -0.063687 -0.128992 -0.147224 0.092858 -0.035489 -0.229251 -0.019673 0.240861 0.153986 -0.211137 0.065443 0.403784 0.290717 -0.257796 0.149697 -0.258095 0.059326 0.158685 0.198504 0.158852 0.382267 -0.126872 -0.318823 -0.390322 -0.005027 -0.050855 0.057232 0.034484 0.111721 -0.385303 -0.215134 0.211674 0.205594 -0.159215 -0.134812 0.193465 -0.086764 0.187843 -0.007068 -0.033555 0.227139 0.083310 0.010490 -0.288845 -0.277021 -0.301997 0.538519 0.015928 0.313182 0.213883 -0.055874 -0.007862 -0.063209 -0.078298 0.199580 0.202201 0.327613 -0.083646 0.297075 0.348512 0.242291 -0.307247 0.303974 0.247061 -0.097285 0.111704 -0.045175 -0.010644 0.191749 -0.161625 -0.443898 0.288705 0.296800 0.275905 0.044545 0.440498 0.100547 0.163952 0.192118 0.146622 -0.066550 -0.594941 -0.220799 0.207798 -0.110481 -0.128099 0.233499 -0.295784 0.131074 0.222011 -0.648024 -0.077945 0.221044 0.319884 0.303785 -0.136956 0.062310 0.194928 
480 0.306874 -0.074825 -0.277465 0.408427 -0.058391 0.298613 -0.014433 0.268230 0.374655 -0.352691 -0.032597 0.153353 0.218402 0.193076 0.100411 -0.083924 0.289703 -0.364471 0.092037 -0.141976 0.207591 0.350768 0.107904 0.133049 0.203335 -0.163162 0.227393 -0.384680 0.210982 -0.095885 -0.055574 -0.061607 0.011408 0.272665 -0.048049 -0.295242 -0.056285 -0.339335 -0.119030 0.061327 0.061657 -0.088680 0.238228 0.178282 -0.006290 0.021788 -0.108475 0.294367 -0.057409 0.215291 0.159737 -0.320731 -0.115149 0.001306 -0.110072 0.184745 -0.142665 -0.019523 0.175632 0.174165 -0.046713 0.127168 -0.232728 -0.215025 -0.201273 0.331456 -0.553456 0.302707 0.025897 0.100901 -0.295601 0.243002 -0.082599 0.081748 -0.119875 0.030810 0.222390 -0.187784 -0.084196 -0.046402 0.524629 -0.360877 -0.331919 -0.168281 0.092162 0.045322 -0.131304 0.036197 0.082901 0.061465 0.147255 0.059275 -0.334768 -0.037149 0.020909 -0.031944 -0.101864 -0.087890 -0.142765 -0.366574 -0.150688 0.142210 0.115098 -0.270039 0.213949 0.039808 0.239816 -0.323048 -0.258266 0.101687 -0.141952 -0.109927 -0.200538 0.256894 -0.635285 0.167206 -0.130163 0.071926 0.082876 0.105489 0.133970 -0.385149 0.487120 0.095949 0.033436 0.344709 -0.293978 0.013204 
527 -0.058142 0.295576 0.143303 0.037364 -0.240087 -0.025851 0.017377 -0.035245 -0.009514 -0.442847 -0.126640 -0.019393 -0.016621 -0.351554 -0.309343 0.075518 0.064128 -0.398168 -0.052153 0.290011 0.078610 0.083453 0.272761 -0.012713 0.013534 0.001957 0.010373 -0.290575 -0.330734 0.026110 -0.188576 -0.037514 0.061054 0.178336 -0.248562 -0.197408 0.062295 0.067264 -0.042735 0.185598 0.390650 0.109377 0.364074 -0.184819 0.240124 -0.360371 -0.055385 0.292678 0.110087 -0.107883 0.021692 -0.108280 -0.445053 -0.400489 0.195103 0.196920 -0.052150 -0.140249 0.288860 0.022105 -0.078793 0.267119 0.166429 0.201825 0.067585 -0.101900 -0.123231 0.055679 0.131381 -0.387730 -0.371303 0.088904 -0.311416 -0.043719 0.259162 -0.167780 0.019496 0.287833 0.123253 0.072590 0.325149 -0.094904 -0.038198 0.045636 0.198433 0.145707 0.368543 0.267969 0.542738 0.371214 -0.037251 0.152492 -0.080012 0.051634 0.196615 0.249026 0.122248 0.115614 -0.428074 0.053550 -0.151774 0.326620 0.236435 -0.209503 0.137235 -0.005601 -0.262359 -0.153766 -0.318622 0.182632 -0.319909 0.156276 -0.528406 -0.012815 -0.495934 0.165461 -0.151149 -0.176911 0.038069 0.189850 -0.032813 0.091930 0.130042 0.111481 0.272391 0.247380 -0.056210 -0.032279 
742 0.105791 -0.159584 0.169795 0.082527 -0.232950 0.050566 -0.481278 -0.259452 -0.068814 -0.140057 -0.306170 -0.033645 -0.053039 -0.139698 0.133917 -0.234017 -0.364628 -0.586740 0.137261 -0.223070 -0.169889 0.037852 -0.304923 -0.318269 0.091687 0.065625 -0.075589 0.186378 0.075026 0.245997 0.226002 -0.391559 0.279798 0.113157 -0.127658 -0.246003 -0.343871 0.177133 -0.147819 0.022352 0.263270 0.031594 0.300258 -0.310115 -0.005625 0.063515 0.498250 -0.009757 -0.198354 -0.057512 0.364675 -0.168184 0.343723 -0.522892 -0.050510 -0.215994 0.331560 0.203100 0.187587 -0.134167 -0.321253 0.178215 -0.198432 0.179753 -0.032493 0.162107 0.416552 0.200286 -0.111938 -0.158799 0.102069 0.063517 0.334698 0.223786 -0.319682 -0.346508 -0.009403 -0.113089 -0.453003 0.048604 0.056551 -0.244429 -0.360283 0.260896 0.416786 -0.251384 0.112119 -0.016708 -0.005465 0.391441 -0.064887 -0.468265 -0.061038 0.081023 0.191862 -0.141153 -0.007274 0.142472 -0.483463 0.108463 -0.052389 -0.520060 0.141913 0.008348 -0.342126 -0.271982 0.129018 -0.036051 -0.041375 0.041969 0.063611 -0.536630 0.082344 0.216154 0.169769 0.537318 -0.000040 -0.073929 0.164802 0.077677 0.192161 -0.163151 0.303672 -0.054247 0.293367 -0.018270 -0.188950 0.375597 
285 0.209036 0.033238 0.142162 -0.101883 0.440756 0.577205 -0.206681 0.130199 0.073894 0.553028 -0.018373 0.143262 -0.012729 0.149361 -0.265210 -0.014349 -0.466955 -0.195539 0.275625 -0.199035 -0.267670 -0.041017 -0.199368 -0.157148 -0.030390 0.043241 0.207727 0.094005 0.276150 0.226109 0.297123 0.461437 0.019162 0.515792 0.269178 -0.020758 0.002540 -0.403397 0.101993 0.058539 0.237018 -0.210671 -0.122606 -0.068505 0.276195 -0.055564 -0.268027 0.054337 0.091363 0.033748 -0.035950 0.089282 -0.462441 -0.434364 -0.080445 -0.097782 -0.074750 0.232163 0.315064 0.000838 0.122318 0.117296 -0.028597 0.095667 0.012432 -0.136266 -0.267741 -0.296270 -0.048145 0.389747 -0.081854 -0.136128 0.050278 0.192151 0.189180 -0.235601 0.165272 -0.000003 -0.412721 0.041994 0.449985 -0.092776 0.239428 0.084803 0.259409 -0.044157 -0.255004 -0.094344 0.127113 -0.046105 -0.240086 0.139939 0.167842 -0.239128 0.002358 -0.087268 -0.248564 0.279636 0.177220 -0.120781 0.143742 -0.001287 -0.081226 0.138998 -0.077514 -0.450188 0.498013 -0.314391 -0.174640 0.045975 -0.072825 -0.292215 -0.135429 -0.592333 -0.236659 -0.147700 -0.087585 -0.000165 0.004378 -0.083500 0.235119 0.135271 -0.508022 0.115213 -0.033509 -0.091370 0.001137 0.179197 
435 -0.284390 0.335412 -0.249709 0.419325 -0.193410 -0.194267 -0.094360 -0.402897 -0.088282 0.372302 0.153077 -0.158421 0.077205 -0.067670 -0.129515 0.114118 -0.252096 0.003056 -0.144854 -0.056903 0.043888 -0.068785 0.225595 -0.005287 0.175826 -0.151982 -0.081263 -0.178342 0.134790 0.187486 -0.039758 0.145214 -0.113833 0.221826 0.070532 -0.010050 0.174943 -0.347607 0.275168 -0.093323 0.030761 0.311731 0.134267 -0.167683 0.529740 0.028985 0.073932 -0.137798 0.603786 0.123877 -0.024115 0.020577 0.040156 0.023641 -0.344675 0.199341 -0.333062 -0.621691 0.346596 0.297524 0.004346 -0.359817 -0.260300 0.084803 0.286204 0.048440 -0.238536 0.297644 -0.213959 -0.033950 -0.095973 0.113929 0.129677 -0.246678 0.032980 -0.338832 0.086084 0.275126 -0.101020 0.246327 0.608175 -0.091194 0.367478 0.044396 0.062888 0.046376 -0.298151 0.340420 0.022129 0.029092 0.175514 0.160672 -0.465374 0.021961 0.134449 -0.249331 -0.311233 0.078927 0.467048 -0.412698 -0.266457 0.047099 0.094928 -0.077308 -0.007834 0.091629 0.174364 -0.044901 0.259514 -0.320807 -0.151479 -0.288622 -0.166254 0.353063 -0.216322 0.530817 -0.072605 0.112921 0.027835 0.135243 0.160153 -0.407299 0.159103 -0.059531 0.027244 0.045411 -0.140777 -0.126055 
124 0.119566 0.064133 0.197101 -0.315018 0.379179 -0.208514 -0.026210 -0.111638 -0.212705 0.102207 0.323085 0.123978 -0.505445 -0.048638 -0.071368 -0.056621 -0.254470 -0.267321 0.143352 0.026765 -0.130512 -0.060454 -0.306693 -0.098525 -0.212536 -0.648449 0.041475 0.192466 -0.440954 -0.252982 0.366664 0.426702 -0.225917 0.236302 0.055574 0.293272 -0.428183 -0.307624 0.030072 0.118891 -0.461836 0.036939 -0.167687 0.364992 -0.305823 -0.079608 0.243852 0.424061 0.684759 0.374136 -0.163171 0.063382 0.446931 0.086812 -0.135797 0.119997 0.154227 0.223900 0.034290 0.139404 0.064822 0.081009 0.060804 -0.080318 0.310864 -0.033758 0.373040 -0.081758 -0.123938 0.099887 0.185342 0.367697 0.388910 0.061849 -0.122505 -0.128701 -0.236599 0.426285 -0.129203 -0.121064 0.097489 0.351910 -0.108360 -0.025738 -0.339133 0.018302 0.168881 -0.078596 -0.096822 -0.093753 0.129576 -0.101511 0.154502 -0.443430 -0.221093 0.126378 0.003852 0.142500 0.012990 0.247110 0.109797 -0.129084 -0.109261 0.027003 0.080629 -0.014740 -0.103157 -0.151632 -0.103564 -0.182313 -0.016404 0.267951 0.149794 0.324426 -0.037894 0.050603 -0.012775 0.182767 -0.055372 0.023322 -0.316270 0.046796 -0.398579 -0.292692 -0.327147 0.152234 -0.043290 -0.084568 
208 0.016620 0.173132 -0.062257 0.068440 0.024327 -0.136440 0.033542 -0.102073 -0.010219 0.046186 -0.265417 0.052861 -0.173631 0.152645 0.018478 -0.031290 -0.260987 -0.210280 -0.049452 0.039403 0.024935 0.042238 -0.018349 0.259649 0.038499 -0.269454 0.127951 -0.289619 0.333094 0.115219 0.059981 0.172805 -0.143367 0.071367 -0.169944 -0.098139 0.105662 -0.237271 -0.122651 -0.061836 -0.455175 0.312139 -0.020046 -0.372340 -0.030568 -0.352031 0.145712 0.255464 -0.099747 0.051395 0.163743 0.193685 0.148127 -0.495301 -0.036733 -0.220298 -0.489227 -0.033447 -0.003496 0.216901 0.208694 -0.226141 0.016658 0.148664 0.205317 0.277734 -0.209896 -0.161624 -0.209417 0.134162 0.004724 0.034715 -0.221470 0.199794 0.046489 0.239952 0.408466 0.142974 0.066751 0.034843 0.245179 -0.105686 0.582175 0.340883 -0.053864 -0.121570 -0.000850 0.219834 -0.188759 -0.326916 0.125493 0.050437 0.233109 0.005965 0.075896 -0.180776 -0.161212 -0.120402 0.041376 -0.122564 -0.004716 -0.250081 -0.180472 -0.042054 0.138994 0.082475 0.243153 -0.049048 -0.071371 0.061296 -0.278370 0.112518 -0.192267 0.150040 0.281392 0.014897 0.052969 -0.022367 0.246777 0.125822 -0.013755 -0.300266 0.295933 0.018264 0.032996 0.031005 0.688299 0.023102 
651 0.060654 -0.007257 0.042469 0.055164 -0.230005 0.166716 -0.297067 -0.111264 0.003953 -0.177281 0.099384 -0.147665 0.315065 -0.295449 0.224425 0.129662 0.011217 -0.056739 0.104908 -0.387037 0.044748 0.025165 0.195582 0.143406 -0.105893 0.416654 -0.104554 -0.116498 -0.181199 0.431752 -0.123592 -0.254806 0.050086 0.115470 0.212060 -0.148774 -0.047373 0.191379 0.022459 -0.133886 -0.109570 0.110608 0.051419 -0.467808 0.228426 -0.076229 0.200069 0.027740 0.203891 -0.358864 0.077570 -0.149539 -0.226600 -0.122435 0.119552 -0.008683 0.202619 0.245505 0.171157 -0.024491 -0.392144 0.172916 -0.275700 0.112765 -0.300105 0.114593 -0.228591 0.332143 -0.117703 -0.347006 0.042726 0.060004 0.143165 -0.039109 -0.355908 -0.258225 0.006862 0.215622 0.301982 0.038230 0.300287 -0.163919 -0.028554 0.049112 0.158613 -0.044499 0.364179 -0.058094 0.356090 0.561184 0.210575 -0.045615 0.080766 -0.083610 0.172605 0.015306 -0.144982 -0.373034 -0.345771 0.266422 -0.160510 0.058066 0.374207 0.110818 -0.055827 -0.270633 -0.038641 0.238682 0.038835 -0.191304 0.156078 -0.356973 -0.005720 0.181904 -0.173574 0.065209 0.250863 -0.181768 0.177248 0.867876 -0.195977 0.119441 0.022730 -0.134967 0.432890 -0.187679 0.135765 0.067591 
83 0.081799 -0.140567 0.004342 -0.314194 0.255258 -0.121325 -0.248491 0.003585 0.276623 -0.026363 0.322922 0.294994 0.035243 -0.280729 0.242822 0.018157 -0.049564 -0.459264 -0.345930 0.174312 -0.215996 -0.487320 -0.049708 0.165785 0.164340 -0.098120 0.352439 0.078160 -0.115619 0.050728 0.525737 0.109345 0.039327 -0.137051 0.383799 0.195536 -0.065507 -0.112673 -0.016276 0.251061 -0.280810 -0.207122 -0.395427 0.282223 -0.058832 -0.189322 -0.096592 -0.223768 -0.076586 0.262455 -0.261089 -0.089339 0.353632 -0.068989 -0.344062 0.151462 0.433376 0.043045 0.087437 0.282897 -0.029948 -0.103243 -0.095869 0.015231 0.107467 -0.005659 0.056340 0.219340 0.029315 -0.159778 0.143404 0.262918 -0.096676 0.071442 -0.472521 0.171896 -0.247464 0.332890 0.130738 -0.008182 0.187174 -0.312878 0.076094 -0.047508 -0.190888 -0.557393 0.078300 -0.358683 0.053134 -0.585595 0.192698 0.087873 0.043248 -0.001280 -0.071608 -0.187519 -0.003366 0.211942 -0.170405 0.357945 -0.111212 0.002571 -0.339310 0.083498 0.304918 0.057071 -0.158095 0.149018 -0.057882 -0.091282 -0.021622 -0.068255 0.125791 0.587476 -0.250440 0.261330 -0.188610 0.259891 -0.013413 -0.073855 0.139789 0.240255 0.286130 -0.139929 -0.336332 0.201388 0.328526 0.086953 
118 -0.141659 -0.202724 0.307986 -0.304521 0.192711 -0.438955 -0.340308 0.232772 0.245368 -0.181545 -0.013437 0.234029 -0.238592 -0.391207 -0.224436 -0.185420 -0.717732 -0.104292 -0.084968 0.097095 0.208846 -0.230692 -0.015064 -0.120933 0.374448 0.058757 -0.132874 0.279768 -0.617068 -0.131798 0.309413 0.125234 0.171550 -0.132448 0.068355 -0.029535 -0.041180 0.031140 -0.035880 -0.104980 -0.208342 0.294973 -0.289257 0.354237 -0.126434 0.084522 0.086619 0.241059 -0.452422 -0.247764 0.232924 0.112271 0.027772 0.041218 -0.298472 0.094686 -0.158129 0.153314 0.218558 0.000287 0.047395 -0.125974 0.228536 0.063855 0.260001 0.245951 -0.048768 -0.067857 -0.504739 0.052129 -0.091106 0.368974 -0.101370 0.252087 -0.170114 0.089658 -0.302430 0.182385 0.208248 0.047633 -0.209255 0.116883 0.384187 0.325376 -0.188550 -0.067203 0.104869 -0.241975 0.237841 -0.268165 0.380180 -0.140996 -0.138611 0.312264 0.023730 0.132776 -0.449731 0.295312 -0.277750 0.309547 0.166022 0.046825 -0.241372 0.034576 0.541661 0.012664 0.002499 -0.071300 -0.318076 0.161280 0.043295 -0.047276 0.332698 0.103033 -0.017466 0.051171 -0.134043 0.421121 -0.307202 0.025525 -0.350306 -0.213176 -0.311829 -0.060904 -0.024641 0.257598 -0.190131 0.144424 
568 -0.115835 0.088132 0.080680 0.082708 0.011809 0.017525 0.108006 0.106165 -0.166104 -0.334721 -0.011714 -0.147209 0.180896 -0.311412 0.044545 -0.313203 -0.145336 -0.408408 -0.287678 -0.182795 -0.265923 0.008657 0.317946 -0.030948 -0.037507 0.310792 -0.193679 -0.018936 -0.301352 0.149795 -0.272077 -0.000998 -0.140689 -0.008109 -0.322510 -0.286185 -0.108279 0.057740 -0.263018 -0.055616 0.366759 0.017328 0.446955 -0.177807 0.079238 -0.505001 0.079973 -0.107226 0.301977 -0.167347 0.055396 0.211057 -0.225049 -0.312960 0.148709 -0.136693 -0.040060 0.067342 0.495970 0.102176 -0.047599 0.127544 -0.063807 -0.050106 -0.136599 0.190911 -0.041225 0.231225 0.235562 -0.101990 -0.117146 0.233480 0.110301 -0.056087 0.131235 -0.256077 0.158830 0.015401 0.028763 0.274802 0.081905 -0.169167 -0.075194 -0.231526 0.419560 -0.164688 0.068143 -0.002119 0.506842 0.480293 -0.172658 -0.090465 -0.126285 0.058989 0.125781 0.367376 0.210803 0.136083 -0.415301 -0.237960 -0.035443 0.278622 0.057161 -0.223947 0.481359 -0.070142 -0.106589 0.218608 0.096443 -0.290937 -0.134855 -0.066154 -0.338812 -0.184714 -0.069260 -0.208616 0.013126 -0.014935 -0.208905 0.361904 -0.449916 -0.154282 0.290673 0.384133 0.218510 0.081365 -0.009119 -0.029241 
511 -0.010864 0.036038 0.220137 0.175504 -0.294005 0.056200 0.018256 0.014116 0.150513 -0.415695 0.016214 -0.274937 -0.123071 0.220144 -0.393821 -0.191779 0.238960 -0.143713 0.035813 0.466352 -0.324884 -0.019059 0.248978 0.069636 0.122772 -0.008858 0.284440 0.074662 0.071631 -0.033703 -0.003853 0.371335 0.011430 0.053577 -0.310633 0.016700 0.220495 0.015203 -0.193752 0.499857 0.157304 -0.000560 0.139635 -0.133242 -0.343959 -0.042152 0.096834 0.467772 0.138657 -0.006418 0.100327 -0.030208 -0.140813 -0.102749 -0.168885 -0.370990 -0.186511 0.115324 0.429200 0.236938 -0.072809 -0.308821 -0.248968 0.098488 0.317142 0.071496 -0.060629 0.153710 -0.015873 -0.216032 -0.122748 -0.150896 -0.199160 0.064624 0.125270 -0.048831 0.036730 -0.016316 0.153429 0.082830 0.517506 -0.291175 -0.083507 0.180359 0.426858 0.245282 -0.263115 0.279196 0.147915 0.107429 0.013977 -0.006695 0.255867 -0.041369 -0.157605 -0.097009 -0.144169 -0.096363 -0.178001 0.170619 -0.058107 0.285861 0.506737 -0.217465 0.054414 0.033043 0.051773 -0.333549 -0.066009 -0.225711 -0.008671 0.327028 -0.167748 0.551239 -0.528069 -0.033306 -0.049319 0.074168 -0.223973 0.268776 -0.192712 -0.073868 0.221028 -0.089579 -0.022158 0.499792 0.383660 0.118047 
203 -0.142058 0.273547 -0.064853 0.180205 -0.137258 -0.017271 -0.129308 0.349783 0.062025 -0.073937 0.209925 0.132284 0.164789 0.189500 -0.233414 -0.007955 -0.460726 -0.224184 -0.132868 0.181676 0.028364 -0.140410 -0.315614 0.245152 0.104764 -0.112389 0.119440 0.125682 -0.074508 0.135316 -0.028565 0.119708 -0.133741 0.102064 -0.346703 -0.072023 0.199549 -0.211370 0.181913 0.467092 -0.361692 -0.050178 -0.270359 -0.160683 -0.116131 -0.083142 0.252885 0.223415 -0.335102 0.243149 -0.131285 0.132297 0.523630 -0.020386 -0.313872 0.094909 -0.243194 -0.060501 0.147640 0.004761 -0.113125 -0.412901 -0.218295 0.156142 0.083557 0.208603 -0.511576 0.001320 -0.206192 0.287658 -0.153684 0.153751 -0.392113 0.191606 0.419414 -0.177947 0.152195 -0.032851 -0.125708 0.027435 0.442373 0.232587 0.365557 0.534551 -0.211304 -0.072647 -0.070103 0.193108 0.340734 -0.105680 0.179657 -0.180329 0.031781 -0.001091 0.190450 -0.024203 0.013864 -0.249671 0.323606 -0.064321 -0.183100 -0.005445 -0.269226 -0.184849 0.251894 0.005728 0.273167 -0.428277 -0.393330 -0.078580 -0.265322 0.220472 -0.388700 -0.096298 -0.079807 -0.088701 0.278890 0.237595 0.404613 -0.153565 -0.142452 -0.184497 0.113291 0.063266 -0.068043 0.167869 0.441240 0.322571 
315 -0.361839 -0.106841 0.063365 -0.143125 -0.013406 0.110723 0.129934 -0.094826 0.061302 0.528210 -0.056582 -0.057146 -0.252471 0.116357 0.039174 -0.113813 -0.124335 -0.175379 0.048431 0.016859 0.187919 -0.253458 -0.185769 -0.023095 -0.073176 0.015452 0.225268 0.075248 0.136457 0.218093 0.107899 -0.024189 0.052430 -0.038999 0.131705 0.133555 0.132920 0.281136 0.323503 -0.242373 0.089951 0.199731 0.171043 0.145598 -0.146814 -0.103658 0.081451 0.094329 0.434453 0.219678 0.068496 0.075334 -0.176927 -0.073552 -0.007875 0.478331 0.296120 -0.090632 0.103705 0.192365 0.147781 0.212481 0.069083 0.124523 0.497467 -0.284531 -0.059497 -0.101360 -0.168661 -0.174157 0.103180 -0.313999 0.082048 -0.784902 0.128453 -0.184475 0.240755 0.086094 -0.055041 -0.426920 0.013409 0.342201 -0.049674 -0.159699 0.036583 -0.265387 0.097501 0.002603 0.082299 0.186703 -0.068979 -0.064845 0.112418 -0.152049 -0.076310 -0.179671 0.262913 0.223754 0.346579 -0.144595 0.129354 -0.197874 -0.167704 0.191030 0.214552 -0.106493 0.053145 -0.171937 -0.093138 0.208076 0.155579 -0.577795 0.126437 -0.182996 -0.050828 0.263928 -0.070330 -0.141852 -0.276088 0.115864 -0.215679 0.190765 0.165477 -0.065674 -0.165152 -0.355047 -0.111742 -0.185685 
588 0.007976 -0.013959 0.229751 0.123858 -0.374060 -0.052953 -0.136680 -0.345867 -0.014262 -0.023535 -0.195861 -0.240608 0.236404 -0.396103 0.080734 -0.300256 0.335729 -0.109902 -0.130508 0.069792 -0.172453 0.279394 0.085045 0.263340 -0.125183 0.060459 -0.124179 -0.222305 -0.114344 0.075404 0.168885 -0.059387 0.106785 0.102633 -0.281985 -0.145696 0.349103 0.071887 -0.090262 -0.024396 0.146103 0.023568 0.410014 -0.353930 0.250757 -0.621526 0.308503 0.343874 0.342575 -0.221449 -0.055857 -0.034642 -0.194944 -0.031456 0.122185 -0.157228 0.287134 -0.047218 0.115906 -0.118109 -0.156831 -0.196392 -0.069398 -0.212525 -0.266409 0.073899 -0.126214 0.027949 -0.110112 0.002039 -0.168790 0.415560 -0.365202 -0.109502 -0.149574 -0.309330 0.152299 0.051817 -0.266748 0.372867 -0.104924 -0.158733 -0.030901 -0.154257 0.075879 -0.050690 0.293956 0.100220 0.517302 0.273305 -0.207886 0.165225 -0.226594 -0.194489 0.046804 0.512966 -0.038865 0.350952 -0.296019 -0.059206 -0.230430 0.224550 0.320725 -0.072935 -0.052981 -0.358323 -0.311998 0.224162 -0.075031 -0.292024 0.021123 -0.140946 0.138247 -0.256585 -0.055669 -0.043169 0.080801 -0.073837 -0.138388 0.274847 -0.351525 -0.167842 0.208611 -0.001947 0.018966 0.464443 0.180206 -0.222937 
514 -0.096083 0.028698 0.295170 0.301293 -0.430589 0.319335 -0.112200 -0.083496 -0.041760 -0.560365 0.119397 -0.676138 -0.046785 0.135715 -0.716573 -0.538478 0.090593 -0.203106 -0.145521 0.084347 0.052496 -0.161429 0.629317 -0.003817 0.194458 -0.170614 0.300816 0.227152 -0.103411 -0.103183 0.016176 0.301069 -0.145535 0.094982 0.330005 -0.005341 0.155815 -0.214264 -0.033590 -0.051911 0.148575 0.268389 0.160933 0.033919 -0.039942 0.068087 -0.019440 -0.168163 0.163804 0.387787 -0.130231 -0.388530 -0.228295 -0.187448 0.085982 -0.344906 -0.320224 0.559447 0.327228 0.000054 0.145316 -0.139395 -0.084115 -0.157816 0.093090 0.031375 0.104967 0.121703 0.086633 -0.224467 -0.273757 0.484302 -0.228347 -0.156220 0.047472 0.072462 -0.488048 0.255434 -0.045943 0.132773 0.361552 -0.221343 0.142572 0.355719 0.154290 -0.028625 -0.417366 0.173057 0.445096 0.369300 -0.417740 0.050996 -0.122744 -0.221388 -0.007082 -0.200383 -0.056241 -0.139389 -0.241026 -0.006093 -0.086353 0.309375 0.129020 -0.094425 -0.135211 -0.219415 0.189915 0.242376 -0.083170 0.120057 0.030588 -0.247335 -0.212420 -0.299661 -0.378492 0.387658 -0.025947 -0.276174 -0.372130 0.119539 0.089210 -0.348910 -0.128496 -0.234734 0.106853 0.329764 -0.227073 -0.408043 
175 0.250088 -0.100069 -0.133225 0.465611 -0.135388 0.271180 -0.061582 0.167835 -0.099323 -0.154897 0.087087 -0.098921 0.056520 -0.174206 -0.166649 0.040949 0.015226 -0.194468 0.049662 0.370435 -0.230536 0.112495 -0.000196 0.020656 0.225022 -0.404606 0.231525 0.427496 -0.318293 0.361338 -0.092376 0.189144 0.010091 0.283460 -0.093188 -0.067003 0.091677 -0.395157 -0.088161 0.164483 -0.188556 0.120854 -0.094484 0.073435 -0.143060 -0.103983 0.189301 0.331138 -0.189230 0.081049 -0.366043 0.015730 0.152285 0.130406 -0.421982 -0.178339 0.036825 0.004985 -0.411509 0.252549 -0.352017 0.027474 -0.128843 -0.437209 0.027287 0.364598 -0.345333 -0.127607 -0.569982 0.216500 0.175916 0.039779 -0.374435 0.526477 -0.183016 0.554035 0.077324 -0.117762 -0.262390 -0.113717 0.383351 -0.047245 0.050783 -0.250868 -0.549586 -0.247383 -0.010425 0.533353 0.097043 -0.113223 -0.009618 0.180437 0.222737 0.227520 -0.010307 -0.412478 -0.162343 0.014458 -0.285054 -0.016307 -0.095069 -0.305129 0.052618 -0.057342 0.150014 0.105568 0.024525 0.150108 -0.477989 0.305314 -0.246022 -0.031903 -0.140722 -0.182602 0.020175 -0.097450 -0.085540 0.044933 0.254547 0.275308 -0.214827 0.173445 0.095989 -0.038529 0.069286 -0.020515 0.007943 -0.199390 
209 -0.013084 0.162511 -0.035176 -0.069192 0.161567 0.032420 -0.125113 0.065632 0.188112 0.025764 0.094473 -0.017984 -0.028751 0.315596 -0.262509 -0.139000 -0.183613 0.087435 -0.012219 -0.146997 0.003349 0.055920 0.019055 -0.173294 0.307281 -0.392159 -0.013787 -0.120156 0.249588 0.190189 0.120049 0.077795 -0.103045 0.227308 -0.140216 -0.222678 -0.041854 -0.253062 0.196201 0.188491 -0.064425 -0.085236 -0.320584 -0.056300 -0.106018 0.140509 0.189053 0.266816 0.167190 -0.171255 0.236581 0.175497 0.444201 -0.024960 -0.296443 -0.153871 -0.133031 0.166031 -0.375442 0.127095 -0.032368 -0.242563 0.019197 -0.215717 0.029802 -0.123445 -0.267258 -0.232395 -0.083987 0.241748 0.209767 0.063499 -0.029617 0.345153 0.106908 -0.286493 0.351507 -0.052769 -0.085441 0.148695 0.425561 0.256774 0.276056 0.369053 -0.218241 -0.108499 -0.079324 0.175469 0.183050 -0.280174 -0.064664 0.057692 0.183350 -0.158437 0.316102 -0.105551 -0.149856 -0.163930 -0.014441 -0.003325 -0.124789 0.076384 0.055704 -0.016714 0.253723 -0.149356 0.296395 0.227290 -0.191109 0.587361 -0.161516 0.176960 0.072748 -0.398098 -0.057516 -0.245066 -0.041079 -0.305945 0.462079 0.272416 0.248068 -0.126845 -0.162497 0.119487 0.084011 -0.036229 0.154188 -0.270667 
